{"layer_sizes": [784, 128, 64, 10], "weights": [[[0.04669005992173532, -0.06568759715336552, 0.003874844771202325, 0.014824459694026924, 0.006818070984340319, 0.007955894842145499, -0.00511340473735487, 0.1412252635301219, 0.0365521082802411, -0.003409635520121564, -0.032690466074593146, -0.03415315383961119, -0.012208152160320016, 0.0772508310034233, 0.06341593910902917, 0.021742065838862564, -0.001867084231782749, -0.006122794750066654, -0.050141147804427064, 0.014998200501957567, -0.0020163049082530275, -0.08957236130787084, 0.05529266163209444, -0.07121053246002038, 0.07042817475152918, -0.17273832506804618, -0.018236219527757627, -0.0540221976913252, -0.0038449170944395506, -0.0013792469544723096, -0.05852195901568764, -0.029306967256486766, 0.046538783140911553, 0.04710052188958547, -0.07223109006987151, -0.06007992773866762, -0.00617140493448943, 0.043037300119300646, -0.05726337738372386, 0.025437049317000388, 0.11749389307678572, -0.055865339866355675, -0.013197357540982677, 0.04883677046951639, -0.043251220661739545, -0.08958350783439285, 0.04851490318183298, 0.03943230570215163, -0.0457607657549811, 0.0024117867499109527, -0.06719673530249645, 0.010718568301951135, 0.0940014183770987, -0.03604163181776061, -0.050351799190456355, 0.04841025720952926, 0.02210830388585358, 0.055350001872831525, -0.030178258197243926, -0.05300211457056437, -0.009933373294574933, 0.020731179874509124, 0.03602909891222651, -0.0020551179181338935, -0.06813975847764142, -0.0051536155941656545, -0.04583729473577464, 0.057169489432283394, -0.017786935960819403, 0.007252982039441256, 0.004025344744394453, 0.0031378248502834153, -0.006872081552923681, 0.020987532400948226, 0.02383693556364143, -0.03099567505863266, 0.09211658386257607, -0.08881550903455769, -0.03437143680366809, 0.015179486005940582, -0.04495724724940312, 0.007216562112560785, 0.06293495894958939, 0.02907826253080644, -0.00929942972758227, 0.03148728095998686, 0.06597697196599947, -0.010870129304014372, -0.07958547853519587, 0.013053653455300844, 0.048897410570848364, 0.10460655522446476, -0.01394257305926001, -0.04889435804828927, 0.020557664403282255, 0.0018656582631485059, -0.04013030192416146, 0.03470688493553434, -0.00232420329047301, 0.06477649373905578, 0.10847164444846062, -0.03690723314790207, 0.006042754731711477, -0.043588105772758276, 0.058602801622787214, -0.05947740127874306, -0.025492885211698665, -0.04448440741929633, 0.028498154677845944, -0.01391863949769634, 0.02606627191612591, -0.012679141637005908, 0.013865585383312699, 0.08329790140426133, -0.027734808959708493, 0.027169315450558937, 0.054304271283324, 0.04453044692015031, 0.05883232117475981, -0.07317100879526237, -0.018534118557153624, -0.08208483645346334, -0.023657725201451322, -0.056860042427216005, 0.031663680304449104, 0.053953387951302736, -0.015121513178275363, 0.06944015984613591], [-0.022231745678010048, 0.015576279026339242, 0.10495711554508717, 0.043404289719966134, -0.0950302649905002, -0.04825332724134809, -0.03709983874779203, -0.006573439080004355, -0.04718939125953072, 0.007033673195219605, 0.002293081407277923, -0.010672452414541457, 0.05491963838157603, -0.009272224672593513, -0.03490814106478593, -0.0043084308716624985, 0.017019726906941, -0.019631105226827563, 0.009925620356871662, -0.11861708105222404, -0.04785390500217377, -0.0670777105195062, -0.054768890928904926, -0.04277535442273475, 0.018866587738725044, 0.04989840552905923, 0.04714097283713749, -0.06186224628973682, 0.027736192109150258, -0.022568556703934563, 0.03457984769146725, 0.0009111657892645218, -0.05033904540352969, 0.028270172007504066, 0.011892910541813503, -0.005072764644734789, 0.008422876190499117, 0.04986392528965871, 0.027719446994342707, -0.05275361577444771, -0.0033357031892424322, -0.008686314571121933, -0.03319134660703199, -0.04821051635513459, -0.005682934593073407, 0.03524732722702025, 0.03038845120374232, -0.014356335896597296, 0.05257536345488611, -0.04811450778678681, 0.04360873537004948, -0.05984274358826906, -0.02885427079365859, -0.08178767223579676, -0.0011265060757409237, 0.0697871738263643, -0.005174409176367388, -0.03946880305663047, -0.02432485777421859, 0.012353910079565536, -0.035660937298805116, -0.0389844609807504, 0.10114692430413923, -0.022375781813990647, 0.047339949651113454, 0.04256291026617697, 0.01800417533160133, -0.007613445541644495, -0.02185215790903233, -0.06716447303556643, -0.04975628221752283, 0.0348175633465472, -0.06586955609089562, -0.0838412686202428, 0.060687742256689194, -0.030252199285556076, -0.03052536260098834, 0.0019415960633534283, -0.032065836773801884, 0.07038494475773441, 0.023001224074696822, -0.06921810397141369, 0.016003325262464323, -0.018801357713823318, -0.07816409375808314, -0.002701611149716484, 0.051386274500686974, -0.1072770712072076, 0.046425597509263214, -0.014415965424658984, -0.026340712420767163, -0.020724733810161197, 0.017628087598112525, 0.03127853169329323, 0.03814553464587969, -0.051691938234168955, 0.013787304045061646, 0.0009887778923249148, 0.07269805260385585, 0.09358690738881201, -0.02825807519482232, 0.01307216424504203, -0.06372420315864971, -0.02066258739596878, 0.007093605304592087, -0.0047134075215760195, 0.02750446124309147, -0.0014892811572256276, 0.03549100717288066, 0.08542461414095842, 0.020537368067160184, -0.02173734233730871, 0.011317067482540298, -0.07657035194011459, -0.06490158917809269, -0.01011606633662653, 0.07259476801075243, 0.04369561473471568, 0.033710432720242746, -0.030961545493350152, -0.03690951680344115, -0.14005662742933445, -0.0036501779779882586, -0.02636106007933242, 0.08782697641898189, 0.04056440000385672, -0.03810369164359413, 0.1135539722211638], [-0.0006606143070603935, 0.024214676645340674, 0.0491285875653626, -0.04437493333132372, -0.01695592269054259, -0.012064637718754776, -0.007504313981003378, 0.037703676498076544, -0.011558143502569427, 0.040175253113791144, -0.025313982563096863, 0.0515443883490874, -0.0246560090456672, -0.03324576577930498, -0.03048619722081885, 0.01566647952108158, 0.1225782910873149, -0.040296226787136874, -0.01004405664484913, 0.05382410423039237, 0.03729331055898198, -0.0546907728192605, 0.015074491842440413, -0.013928970751977316, 0.03415289395060448, -0.0241455536711892, -0.02435948417523837, 0.0358039943460715, 0.06669349850421949, -0.035973703464260556, 0.00702652112364475, -0.008246980328747806, 0.08276081382992942, 0.03729519382899153, -0.0007699034237548985, -0.1233343452826654, -0.03288063186946899, 0.008917957302595063, -0.059549462471436755, -0.02754430035712302, 0.020183810790029982, 0.009915640155460478, -0.11842944766175764, -0.027862590290274103, -0.02785746990170405, 0.0047661463227941375, -0.0662942494585085, 0.06483034729441682, -0.09627807394708958, 0.009441505589565372, -0.015425376737404175, -0.02019216152585897, 0.03173557928012191, 0.033713774586723394, 0.029209363998481123, -0.03247689598764813, 0.04363941687182151, 0.004684445878453853, 0.031620523466082934, -0.0018775782799286067, 0.029486786619249236, 0.0046119927525752795, 0.05221565360574033, -0.07766946182542721, -0.06378953643771218, 0.02790297930169994, -0.042705327399274434, -0.04126275273543902, 0.027967007561152373, 0.01547950519155413, -0.030261967653110462, 0.062359508717056006, -0.010251863033464398, 0.022212358138132438, -0.03882740051448809, -0.03831681283472329, 0.044395472263747654, 0.017353541412508496, 0.09934871280637322, -0.051546079063188956, 0.0307185813942181, -0.021290213732948773, 0.06903785616105546, -0.05343784625936938, -0.07246850590231745, -0.02743623754860132, -0.04413204753792575, -0.03579570496690363, -0.05061005109538423, 0.003159601944808416, -0.06814066327664724, 0.04656250676820281, 0.02844034152219759, -0.007447385876742297, -0.043131896218520885, 0.014112947220672014, 0.07287272982469, 0.034780550371555564, 0.0022343866479097503, 0.020107481037624032, -0.003474512097184943, 0.07625565323887869, 0.03096458428179711, 0.04693503041095454, -0.017764136595345106, 0.04688547739184975, 0.050419720293746084, 0.018848102259704947, 0.042850191393654924, 0.05746854385024055, 0.04080483805832631, -0.06351537287841877, -0.07586420017679103, -0.031885476026319734, 0.007293758793642542, -0.07686599827770889, -0.07813021591566635, -0.06624050376252606, -0.015220067992457594, 0.09785629891323452, 0.05029709470510095, 0.004447265097973707, 0.033182425106635514, 0.07780504976135318, -0.020361479683785714, -0.011977078386930613, -0.0029527640144514622, -0.015965431638014473], [0.00943779577018572, -0.021446479368986405, -0.05935052028940316, -0.03226820515035543, 0.009790506769665194, -0.0561857742752449, -0.011504671000682202, 0.09741472156260189, -0.005510989061131155, 0.014745955550720452, -0.0065191383072057746, 0.031211105560226386, -0.011862942150114056, 0.0037748558277030317, -0.076754892890323, 0.029749654997315897, -0.06906270101414745, -0.07039176638045104, -0.0746745281971291, -0.022883287290564963, -0.040169877746533564, -0.06243792443826621, -0.052617412079958424, 0.03319974701338374, -0.0317022416280339, 0.05772438210495244, 0.04869602753905385, 0.03564769038693528, -0.11356258525648638, 0.007136873771353951, 0.04470206953869122, -0.1312316889146524, 0.05174244807891706, 0.05281257043813213, 0.008030107690865197, -0.05980748571063313, 0.07468409931142092, -0.06784201406948503, 0.06305091586020799, 0.12540757798508906, -0.022880262975040432, -0.0039178665260024845, 0.08764366343540969, 0.04653061030127332, 0.02434522598246115, 0.04304352796836768, 0.008439359804849228, -0.04664381826311286, -0.006869433000759155, 0.03203780008239607, -0.04612667695158228, 0.015451394693640194, 0.08001656122856399, 0.0017936106409846123, 0.02659505141324855, -0.076045799308918, -0.00857561324475708, -0.006492578498697458, -0.05167658582305086, 0.020453380532910775, -0.13808731154780413, 0.05787244907297927, -0.04497094284886586, -0.06901739845296805, -0.03244995756008324, -0.024527447817738444, -0.008490998736956027, 0.0595658259025249, 0.04568131773634918, -0.05832150654829245, -0.04042610427111376, 0.009138672456912966, -0.07145862737022829, 0.11621080885788508, 0.021893620056082468, -0.03651992052521574, 0.017300642309799656, -0.016680461348115377, 0.005924860845734527, 0.0418035788107477, 0.03892477012651798, -0.004162801178599315, 0.10664746850679989, -0.038751541795240554, 0.034441014809014306, 0.037538019172199566, -0.036932196551087065, 0.03520019390082683, 0.022441253141857107, 0.08677632485269973, 0.04822128684612226, 0.09636548636042569, 0.0033313824628472648, 0.010401074940091279, 0.06928499000069467, -0.025060924043133034, -0.011114042344661547, 0.07392068912461891, 0.015411768364372061, 0.04318442939676739, 0.052730791902186436, -0.05504302640087609, 0.06906350383422417, 0.02564229742439151, 0.07314880805698035, -0.008690775600658984, -0.040974760750730636, -0.07062596985920978, -0.05177755983253073, 0.0021539067063201015, 0.07926868991918333, 0.04547892300032169, -0.002466086470715884, -0.04974162350609238, 0.052744044890396705, 0.00030509387352191186, 0.02873237968775591, -0.029569976936490164, -0.051686142909400164, 0.005068093655283895, -0.024744454469875214, -0.04094121798261281, 0.019334041493160488, 0.05333511828087427, -0.03242165536109048, -0.05362778623785967, -0.05758704066232202, 0.05298751288907943], [-0.054242530870167435, 0.0031283049425227137, -0.032954738065849885, 0.027577503237264933, 0.02509679563349856, 0.03395017263534027, -0.09388681911394575, -0.017803643589868152, 0.07051367017875115, -0.013869658795420497, 0.01778905770081637, -0.05011840673021209, 0.057346866810508906, 0.0440168418606987, 0.10015250653471079, 0.07981326181043912, 0.03355448442377156, -0.0326564775286963, -0.009839736019833312, 0.023775662633298427, 0.04487761745323655, -0.01986227033574936, -0.07886839161944308, 0.03193444104405201, 0.026012605601840332, 0.017393461267980168, -0.0030666757024918005, 0.028388894357465083, -0.010316473242847206, 0.010175064869304815, -0.028947069230984775, 0.029463265601814583, -0.042662219356197136, 0.106538173194284, -0.0034909744419233247, 0.026921946480175728, 0.003827878994281641, 0.05210680015413511, -0.15783365816073935, 0.05390184806538382, -0.02147482698370878, 0.02394388802407818, -0.02368498120840517, 0.03884330613622152, 0.0344785755898026, -0.0712029544499169, 0.030752994072835205, -0.03320080807139717, 0.0351371341463708, 0.05322043000225838, 0.0029895031631162485, -0.011742335089143676, 0.07192304716365347, 0.06507350925605644, 0.0331923202917828, -0.03774429596314656, -0.06853246138553183, -0.06998942530154152, 0.021195954904483137, 0.022147645750484744, 0.021658445328018062, 0.06098711358194393, -0.0008677749552692928, -0.022056315639643127, -0.0011083160677821478, 0.056926547679689354, -0.004820243200847869, -0.014364531743606178, -0.03432418342306378, 0.03988103580739696, 0.06917624419168052, -0.06402441086517824, 0.006391449685142116, 0.08811033750805108, 0.03771173195843258, 0.07140421750772256, -0.020410797456130936, -0.0166958856296113, -0.04860899586184039, 0.002969395989708723, -0.007338360254505913, -0.04426991950555847, 0.02479925330670377, -0.03660169613012789, -0.041934524578330336, 0.03104355942520406, 0.04889201385368348, 0.07613920729427234, 0.08064499289662046, -0.0286400519119675, 0.020168820476351993, 0.0648709902621239, 0.06823275385383301, -0.016047506265206284, -0.003034735254301116, -0.07723503272583362, -0.008475768055488747, 0.029779067563816895, 0.07771723699344471, -0.047506886108797386, 0.021346273700897953, -0.020308742350207125, 0.0027626050344692604, 0.04412269696272531, -0.0672193275993861, 0.030404796704517904, -0.02105210629511113, 0.02465554831037828, 0.022225369149331403, 0.05667973379385317, 0.031019867438558512, 0.10342353068367091, 0.006261449017004283, 0.06240996001297924, -0.02767130264648547, 0.0255652905628169, 0.05820255349552361, 0.014386614505264893, -0.0016325597802656754, 0.04841617930559074, -0.10134412809439261, -0.007373611518398967, -0.0011484239477995177, 0.07900596236259069, -0.04704005221173159, -0.018599498819120243, 0.00390925173316467, 0.012603005400475941], [0.00933790159097424, -0.07180320063152837, -0.040819282172027446, -0.08324752168099113, 0.013513438872969874, 0.009704750188231347, 0.004205622008406098, 0.02210762763073628, -0.014281255847143275, 0.045306307569263154, -0.06092083520870605, 0.008014268509662173, 0.029114606018000574, -0.001021789152499857, -0.02632991894141413, 0.050316297793798814, -0.08686822715228953, 0.030084378690116667, -0.0955071516766759, -0.007266305407569578, 0.09945162002007055, 0.002886850988898422, -0.06553184413849433, -0.10339545759891508, 0.043009872051962696, -0.007556197965387443, 0.009569205257047018, -0.0030678974702928485, -0.02954677893937332, 0.04135894379337346, -0.042674155499558594, -0.0507319686107661, 0.033742050956029924, 0.0517284667125188, -0.017644351497753282, 0.026422681472470635, 0.030430910248961773, 0.029437412355872012, -0.02406009614750185, 0.0849170679440268, 0.020704268764127266, 0.06450825833394885, -0.03324262853208319, 0.024866800466261517, -0.007488316342893496, -0.01112337105534804, -0.05685774307705157, 0.10783018875392261, -0.0317426112027197, 0.040425392327630545, -0.035829124595277324, 0.027487474903126106, 0.048447053357557154, 0.004810054255028083, -0.04489684552825956, -0.034076516725998277, 0.0445934448337709, 0.06570158241570925, 0.04342901747866629, -0.02718614226147451, 0.023811183277393812, 0.03513804289971642, 0.044921848637055284, 0.055377899604378826, 0.05271921784868044, -0.018798477430580142, 0.05691298669181794, 0.017604601258498668, -0.07416995901392857, 0.03319158581417338, -0.000155830514684136, 0.026316372294052814, -0.0020312214394587382, -0.0013727545168971084, -0.02301779373744555, 0.10598321429111099, -0.06739034278305739, 0.02264142030822967, 0.005335453416266086, -0.0538992825272092, -0.07121620055861005, -0.04806059086674902, 0.015512642613255068, -0.0660193404104011, -0.053589181547744696, -0.0955679902884577, -0.027454049797650724, 0.034895993609108195, -0.02107087877495008, -0.030603867450798045, -0.024699992045975307, -0.05128839549108335, -0.006751877597545595, -0.00874141689154993, -0.008701487904325188, -0.01397773003031483, -0.02696844842778676, 0.021223464234909343, -0.0351220191038454, 0.02350918688296436, 0.017168622780632643, 0.013562092189028456, 0.004498445541806512, 0.04751453407879536, 0.13362834370721824, -0.030814487291511608, -0.02259685204508212, -0.026172087688982756, -0.023250498344219946, -0.0866286824256208, 0.039003122709135064, 0.04929426082849028, -0.06988002376583462, 0.002248185656352878, -0.026669673037129943, -0.010129824492624808, 0.0399797806213597, -0.004366074040749111, -0.01964640201926447, -0.04071553462143833, -0.1266825585858443, 0.06438193246183048, -0.03965924635667108, 0.007906719349741511, 0.09271755553801699, 0.021830334778813573, 0.029186476069813717, -0.036846761346344827], [-0.050081116058238916, -0.031871207821723306, 0.004359964968846811, -0.04004606465113234, -0.03220417166054801, -0.021970085846543124, -0.07553755552515079, -0.009855979323177673, -0.08238661479838862, -0.04479922843357572, -0.01971959108050161, -0.16136678812553523, -0.008697926749843642, -0.10290532543847802, -0.032384444943958646, -0.005740280549917226, 0.01524539130980718, 0.029661736237449093, 0.013360194913685246, 0.0411164234829377, 0.01153338634421268, -0.07845292213711806, -0.06855070343949414, -0.02529000350905369, 0.008755757849331088, -0.0035262198024229316, 0.00798502990119314, -0.005841192764671753, 0.05276504401210324, 0.07759976103516278, -0.078846354547335, 0.015022498463010533, -0.03885247232021794, -0.018362344523242223, 0.018756025656065066, 0.025659444600744007, 0.07023679292870286, -0.005738180574913601, -0.048347593684257346, -0.00016730692399591877, 0.019796988292917695, 0.02483126985245135, -0.06559954677504326, -0.025935033424092906, -0.04622979018370866, 0.03387751454987935, 0.03204172780568312, -0.018675852333454073, -0.15275055561508472, -0.013547766415972752, -0.025351620306052775, 0.0026345781773880737, -0.07963980975880001, 0.030102590588324644, 0.044426186982542054, 0.030936173711790898, -0.08000944857677755, 0.04998016804973389, -0.02605436208818281, 0.005392761181220976, -0.09406487261558859, -0.06446587562518753, 0.02187663778521364, 0.013329076629605498, 0.0028604360688732, -0.016581577476013288, -0.0160120458343613, -0.07732224683481856, -0.013240192143399753, -0.0564595609269051, 0.009695786673173234, -0.045933589263803996, 0.055925615229966516, -0.07634207177847814, -0.023893542413826616, 0.13892509266132477, 0.024788848865258808, -0.02427691888241221, -0.022102253454391034, 0.0457911394003851, -0.06282223346878354, 0.011757120657883443, 0.02477058460945025, 0.08716492170257358, 0.0770365078005432, -0.10966135435977734, -0.02532210731526639, 0.030855525194945676, -0.06975114031126252, -0.020032944451643834, 0.05780647637450564, 0.07310675712965205, 0.014197485998639525, -0.012342159424984317, 0.08316539033083557, 0.046185763583329306, -0.08422133306483393, 0.07093730211124505, 0.07901583604139933, -0.0051132601902499596, -0.07938293028088904, -0.0143679342972141, 0.0005672419669273313, -0.0103133058080488, -0.05917442663242052, 0.016158684306041005, 0.03700567524762309, 0.04179219529518362, 0.08753563170835318, -0.005094665199426685, -0.017129758119111972, 0.006884167507032723, 0.08609739311385296, 0.008313393617322574, -0.03136383905119719, -0.060160718270236134, -0.08662981158079454, 0.006196748928925713, -0.07287204127736394, -0.006371656485210583, 0.058375242873893896, 0.05482140059222655, 0.018397709763959897, -0.08868942138921351, 0.0014596374012179308, -0.06139256408167612, -0.07315542163061661, 0.005661326421218849], [0.12628341447258964, 0.013177960770804619, -0.06330120184128127, -0.0022839814478197275, -0.021109214669796515, 0.1069263792899534, 0.04083746046704002, -0.075126719216247, 0.00018763274929479914, -0.0012235436799481823, 0.0067837033900152175, 0.021937022094253723, -0.10810975694467256, -0.08673287201351425, -0.06758474688326524, 0.08229578641292011, 0.04588137668835411, 0.03487152903806474, -0.007713596327860533, -0.023626098651936576, 0.08422430657559857, 0.027896510489074107, -0.022800989686960753, -0.018188203862000613, -0.00502461728545738, -0.05168494857250652, 0.014874789402004339, 0.059110051453137934, -0.004091075023072102, -0.07944272319863907, -0.00836259228351054, -0.049905802845375546, -0.021592834016976828, 0.03076764735922911, 0.11507674984493393, 0.1324015577845473, -0.043514704014064605, -0.04548649103524257, 0.04059553443935462, -0.0541451077120398, -0.006908839957020881, 0.06705045249788517, 0.03883057959972736, -0.004095680175545497, -0.06021642045176361, -0.019458612717915248, 0.06447118224280378, -0.0702713924182182, -0.004336080958760187, -0.020508771101880117, -0.05389327095120558, -0.012801188279144837, -0.008946646579219135, 0.041240549832414326, -0.023071693542252622, -0.026552521213350687, -0.08350999766278631, 0.015154159767398352, 0.04821974455132635, 0.046072332086744, -0.010727560015936465, 0.01617472512508283, 0.11945217431000979, -0.0624612160385094, 0.05364952095437744, 0.00713482058857576, 0.03834997513098346, 0.033625756478451646, -0.10027623148187863, -0.006591752376777714, 0.048879207290769555, -0.005152976427323043, -0.03076673830014592, 0.0004386914105945711, -0.03653745536838597, 0.019605946822984416, -0.008040116169546443, 0.0010550564801231706, -0.021568631758947892, -0.04833401145427297, -0.0309065404182925, -0.10307270190506727, -0.027574407788061694, -0.06559128333537746, 0.036885601193681804, 0.033659414091669754, 0.06113992160640092, 0.01771706335940059, -0.013519603535788223, -0.0443398606108966, -0.0602685102522163, -0.06198471090714036, -0.03190220983596008, -0.006447939255911822, 0.01583548269662483, -0.04400721152437794, 0.01160923778340366, -0.039001992201473656, 0.004071646878358161, 0.03877019311855805, 0.07213169425926842, -0.041239661294813726, -0.055750882646775184, 0.02761266964960207, 0.0768402334495289, 0.015385341517162655, 0.05711299480640818, -0.01679358438751675, -0.021435285165465688, 0.023106441455953804, -0.03606374769011464, -0.03751495245627256, -0.023268186537788924, -0.11042480016939585, -0.05366786677495718, 0.07349538013820452, -0.003605577794510934, -0.08265649694901374, -0.039201200477772445, 0.026270859446374615, 0.024546936714963278, 0.040051219178311705, -0.035311638452823396, -0.04500211209740487, -0.06686080429651978, -0.07354672247871455, -0.10652414121019244, -0.029007630904855718], [-0.08004625274454383, 0.10487541211103926, 0.00897063294581928, 0.023570451238959206, -0.04190906131707896, -0.07032317154873868, -0.0055651399571140835, 0.021287338553241407, 0.04474020772451764, 0.07285485079368235, -0.0059875738713365805, 0.03124847781600343, -0.017256315247116082, -0.012465497459979253, -0.04840008076426348, 0.045220257723692744, -0.053052111103513586, 0.03324425227318226, -0.007074069285028326, -0.02781722392014416, 0.034552695407629126, 0.02929507655416367, -0.035590023597369944, -0.034571854589023246, 0.15997505793856281, 0.04246905170934133, -0.10036168316340266, 0.03277664681753265, 0.043684145545913815, -0.03397949419693814, -0.04673145427652656, -0.018018842241682553, -0.06272293338210681, -0.03615346667723591, 0.03530388726873351, 0.009629562704324534, -0.04337845148644214, -0.025328337593218255, -0.011213158064745618, -0.020490955745742275, -0.047917454456712735, 0.03843325734158166, -0.008392357139881401, 0.008151166423506018, -0.06266633155493744, -0.03279726625939429, -0.028831863386241725, -0.04349073345024739, 0.0006919829313803015, 0.008363835005887565, 0.013604519045037884, -0.04504593789312664, 0.016203224349759786, 0.01316135952040044, -0.01394911278805863, -0.00838786840901306, 0.06945912905541642, -0.016167110698215928, 0.029899483940086003, -0.04647406649822891, 0.02398453519631298, -0.06172575872327563, 0.07771369955826973, -0.05456291718787791, -0.04483423193475925, 0.07950960587513506, -0.019499007973947106, -0.05397172553902607, -0.00952956325991716, -0.03781527872841466, -0.013995032265834246, -0.03014752807267755, -0.0258826983426258, 0.011405127882446199, 0.016363420308902085, -0.07174256148670004, 0.1061956300623815, -0.021477159517587174, -0.03901273896174107, 0.038664897685245836, 0.025173096375471948, 0.06850873383229336, 0.05567320618875958, -0.02108464587307588, 0.03347484634683746, -0.02814702713078541, 0.0013291635650077302, -0.0023108400122826304, 0.012213957441272419, 0.0961063930716977, 0.01837287774141522, -0.01717995842111564, 0.01711744612787066, -0.02715388423795862, -0.04338033848539969, -0.050853670311475335, -0.0060927580317901835, 0.07760201298191508, -0.10458587631895323, -0.04018471438800237, -0.011133606726146479, 0.03200596430408322, -0.03631666687857734, 0.06379798976112969, 0.018829961942487924, -0.13507851406023116, -0.054725605133963635, -0.043363701542893276, 0.06854632121597144, -0.024447539964776322, -0.08797062614965948, -0.04042199438389514, -0.0054127185069585, 0.021608609811440454, 0.09903555561687899, 0.03452122922233721, -0.06247638683822866, 0.018491125739207876, -0.011273201164414019, 0.0031176244750137634, -0.059861451483260456, 0.020486111596679627, -0.002889067306435029, 0.05458908149974792, -0.003510325035279329, -0.07494541986859311, -0.04383248263634467, 0.0671492915821873], [0.03981880896926515, -0.021683262760218012, -0.04744284077250826, 0.013742586343115593, 0.14747056290849617, 0.06641629242045538, 0.0719969424444488, -0.10225060821984694, 0.004695279665656277, 0.021463052447306123, 0.04492035793161502, 0.020830937664588305, 0.11414204700286572, -0.04419512049035579, -0.009313411750907696, -0.09501247900713904, -0.03146671097529737, 0.01545924385330124, -0.007826736041692626, -0.057125484676239284, -0.04606555574782767, 0.03522397072086808, -0.003866064006883866, -0.03499262995845598, -0.010803352134965985, -0.0681103874277468, -0.01581193388262562, -0.06914518237625768, -0.05119474297847648, 0.019387336753158724, -0.049778718659729396, 0.05505022497517508, -0.02103368827506493, 0.03318582987238495, 0.013349651803109153, 0.04287012732817765, 0.043859978439894975, -0.061845965430575786, 0.06907675986175951, 0.01668488544732319, 0.036284040102412915, 0.0274655690534355, 0.07733008634337374, 0.013736807796481025, -0.004890224342984631, 0.008723205146633512, -0.03142200071944568, -0.044653904934047764, 0.04332757207536032, 0.01407707001071103, -0.020381547807775062, 0.04061248818303609, -0.03960128265084253, -0.05066490672410444, 0.0058942933808278026, 0.006633143487081931, 0.07024770236157511, 0.04442682835776741, -0.028637632509103266, 0.01870713717002051, -0.0884522067148324, -0.02392623347714743, 0.049512450384076284, -0.01882951005387781, 0.06190181382522123, 0.007881876145236872, -0.08840845402572477, 0.019615715637207924, 0.10973298952368633, -0.004645777270412472, -0.0891693790170051, 0.04159127958042017, 0.005648719357989188, -0.03746136568956467, -0.011138102394180546, -0.0065920307424992275, -0.012382926364176636, -0.06243417264397403, 0.015931262461153096, -0.09248768216243523, -0.016852443079825124, 0.0374315347325837, -0.03877798369881016, 0.026500185110485436, 0.01447077547032178, -0.03248319920482186, 0.02479150690434463, 0.06789204787496503, 0.003929991816675045, -0.0662679136393036, -0.04724203830039651, -0.024224585389022356, -0.043266248821171235, -0.08125216454581362, -0.025027076346468443, -0.020900785990294737, 0.10077960399119637, -0.12113070627568964, 0.028426191634319718, -0.029053871243330358, 0.0019226274125085597, 0.007467239105737922, 0.01195111569737853, 0.023777225234207333, -0.0059276391285210195, -0.004263542263639525, -0.021605894806346764, 0.04857098977776847, -0.015107349235089254, -0.12342734629020521, 0.021426663473347103, 0.004191263087328443, 0.06918540400912404, 0.0698511461047695, 0.00646498733090391, -0.07311705189984077, -0.05305821191532207, 0.016574556825268455, -0.057588315668536366, -0.025725370607771164, -0.06119540161561938, 0.06401836364182427, 0.06421901779088698, 0.030402443764179686, -0.0052809679341958675, -0.03277300693498585, 0.018633716731769105, 0.055778805415551094], [-0.11964103719053718, 0.04382749795695548, -0.05608144530594155, 0.03399406569794479, -0.029122719502157522, -0.14471230881862407, 0.03698384242190028, -0.010297719390300688, 0.03294720479673969, 0.014328324609468878, -0.007468370571147445, -0.0027563008270463673, -0.12543506794863185, 0.09522744581080976, -0.013785952978052685, 0.0717409672106302, -0.058138271287380396, 0.003828679225669455, -0.06385196467390733, -0.10660053408399377, -0.04635718845326802, -0.010448835413564206, 0.03284790506092944, 0.028903069609135836, 0.025841153668106624, -0.022237398381316, -0.003210370279635891, -0.08158009223731698, 0.028729393876744752, 0.003975807459856694, -0.034574420111239575, -0.01891772054821594, -0.05938841415357204, 0.03353413951410765, 0.032030369003171966, 0.0031784674808636444, -0.02900649923021584, 0.004841905853588885, 0.034030606164436907, 0.025278067701251575, -0.03186430849279586, 0.043939900742576005, 0.12299433755329114, 0.09962551374194883, 0.0933455741352978, 0.0570363892180126, -0.06657666911231769, -0.02796121245865962, 0.025262718088871587, 0.10909130840150143, 0.06664197491691422, 0.06274633673104117, 0.03673676504383229, 0.016304355292583072, 0.018195161132261942, 0.0317594926861988, 0.04512669249028224, 0.003372997282970461, 0.10712802739580626, 0.10231799732914724, 0.033717812678615414, 0.022505490389908497, -0.010935270386136559, -0.07378455728397836, 0.028701921275085345, 0.012168272727416772, -0.06707854927805393, -0.03700904434023628, -0.03500063122648771, -0.008649039089643921, -0.05222180125575069, 0.04896806822467893, -0.007067594255211469, -0.04054816582295037, 0.06295415491050585, -0.06068720036928689, -0.04945922752257379, 0.0714290711362711, -0.0016507881496980422, -0.02668274690724681, 0.012954185753920162, -0.0017565775458720878, -0.024374724861330382, -0.01676860817411283, 0.11581875738159952, -0.02228014195233056, -0.02671852144703649, -0.047008838676149196, 0.004270547075743211, 0.06616599359987552, -0.010308390734492271, -0.02374073514740598, 0.07248860006395319, -0.007415709349455149, -0.029235553863129475, 0.005598100678604968, -0.03371309100866475, 0.007796650942665811, 0.0880686736908162, -0.0867475713300137, 0.030356349782406263, 0.003359666863386837, -0.0370571870977636, -0.017133738022313494, 0.014038893347082963, 0.03633017678787391, 0.005641455093842236, -0.031165468002129965, -0.02406157252936426, 0.05036760325312138, 0.06366749858106481, -0.011576387731740918, 0.023812299832117512, -0.1729761735957789, -0.09295085376769205, 0.13173810754389798, -0.0282894387469211, 0.05273662328769515, 0.0256876747578731, 0.01306013617777309, 0.012160023023142738, 0.018458685842790163, 0.0760287725879634, -0.08830271378739436, 0.020331352893673573, -0.09757088112183031, 0.013189043881798363, -0.07754676953594485], [-0.06508825898104312, 0.0072075000683023615, -0.041383913841933975, -0.020405780186219975, 0.023043831968402564, 0.04594126284030214, -0.016484800974753643, 0.009773091449445532, -0.05943728790696538, 0.027988545341231, 0.07935840449749669, -0.06055189477990371, 0.055460319289910395, -0.021943291098913947, -0.00237265325540211, -0.03331160084403145, 0.032546160926012535, 0.012416731758336803, -0.10170416059797315, -0.010411691554709347, -0.05230223385246503, 0.01640384395249451, -0.013829799087408464, -0.015577282292905375, 0.03257051139260107, -0.011914084486878118, 0.04851678021931814, -0.03935340511518108, -0.06498940180415884, -0.10268653215259946, 0.06934566113984472, 0.10281262213347715, -0.09996922210406956, -0.039670516595676324, -0.028115275219380224, 0.03325294498848816, 0.05346025546253735, -0.10560952433656759, -0.057192719037911996, -0.049102133093332695, -0.008999355595433646, 0.08949461135171832, -0.14108974148857586, 0.018112371902116793, 0.06754750920947182, 0.007605596586659938, 0.044446192926711876, 0.06807381594477187, -0.02424070400216316, 0.09564348579076129, 0.033608092317957146, 0.00463416409371665, -0.04133779418550218, -0.047632765859091646, 0.023830456381116694, -0.05568383896026999, 0.07023254260389596, -0.028612144787622414, 0.007980118273128025, 0.04215434901076333, -0.060894470135506674, -0.060864358959143466, -0.01972591181949278, -0.03129620683800778, 0.00369911985800828, -0.0036467807278666923, 0.10440062454415193, 0.019803733198721918, -0.027130121845838337, -0.004998377429111457, 0.03175963050593903, -0.01230332948890149, 0.0056479677739774865, -0.043387457937717776, -0.03448129472751986, -0.04983254724410437, 0.017699205937799133, -0.05159341587782385, 0.04839356590860605, -0.09051801771048285, 0.06486933074982348, 0.03146511614428194, -0.010942731144050625, 0.056819306903216765, -0.032023185912714115, 0.03249556721622371, 0.02895698029834385, -0.05691523949468473, 0.021638929059214263, 0.015946356198870724, 0.07235631261371643, 0.023040543691143407, -0.020218244468910254, 0.014238110672270437, -0.05035324724865832, -0.051454988390948884, 0.02022069894272873, -0.0014329272140541265, -0.019867152414102442, 0.028531373623174306, -0.06520599140337817, 0.08480606333863178, -0.03269875150885542, 0.006172609002339942, 0.0229248631851895, 0.01619691886573419, 0.004383228851303327, 0.1198209644216016, -0.04149655219584632, -0.027826735200442897, 0.03380856770945975, -0.027595948838479004, -0.0005128689689633052, -0.004113283255382271, 0.027587590808990196, -0.10718914356210953, -0.06048733089814861, 0.013534456923768631, 0.07231794609531317, -0.0022257005883189254, 0.03062031159547627, -0.08788295376838468, 0.04165639678287277, -0.0009611660546624765, -0.021276679605255713, -0.006181394962790452, 0.036625399747023814, -0.017394797345303924], [0.04868346725754553, -0.01647789314400382, 0.021878440276311428, -0.01885784570220536, 0.019013041817831814, 0.023724802705997763, 0.03286736738198769, 0.03351857907194569, -0.0537644574581892, 0.057745289317150124, 0.017869567828786768, 0.030270291628299504, 0.13332166269917736, -0.09472979864934161, -0.06431111964602497, 0.0685691219450857, -0.03486169424248848, -0.04862978078719472, -0.07570178406557668, 0.029726536306951774, -0.010227065410822975, 0.011731641948168144, -0.020793877656779168, 0.010121522822592072, 0.026819420641951953, -0.07210463593895376, -0.04635905908294385, -0.015377943819988247, 0.009686081205314343, -0.050967516491409, 0.0377572068691175, -0.010073959313711767, 0.020886557718931813, -0.06375735122989516, -0.0024702748782079098, 0.033956336260946796, -0.0686313707840408, 0.011103439243738713, -0.026472114234910974, -0.0692966867697683, -0.07503711280417043, 0.01740714935623861, -0.05217580096436993, 0.0369840631405769, -0.05349239138798829, -0.11100969305772942, 0.013324050927358711, -0.16261108662933896, -0.03037484153444389, 0.026997966715052665, -0.04020195281669874, -0.0044905167397562016, -0.06159475908066756, -0.010981147823123549, 0.06844933864637263, -0.07041484718576317, -0.024680234148923133, -0.06695331308059267, -0.004919107333645502, -0.05507171521692381, 0.03210756939572329, -0.032847444700410455, -0.0028004845746042177, -0.021679152775559936, 0.01789278923361168, -0.021912476456135494, -0.04163699062973461, 0.018279402886477433, -0.0084036057503145, -0.023538457971756382, -0.022552024168292033, -0.040436595251908396, -0.046534358765745784, 0.034756591730845436, 0.011601268685176249, 0.028653222466223677, -0.0066157852302189514, 0.004521274605636468, 0.00037911127648383134, 0.015220807164233944, -0.009284830714199865, 0.079753635057356, -0.012238072783902501, 0.048270607483339265, 0.042604685182189315, 0.05317734131850555, 0.06863447067765502, -0.04574261538052945, -0.0294249813571499, -0.0551968702178387, 0.008728968306307303, 0.003023282526940074, -0.03786356577894197, 0.017583081947790954, 0.08595987032076428, -0.009303403178543812, -0.00867738721261518, 0.024551622091469567, -0.00832261125481978, 0.06154941603489851, -0.012383285573981658, -0.007915602324633932, 0.07923513726223724, -0.028627991520221927, -0.0324687312889674, -0.019258990162155865, -0.01583983212110129, 0.049601322712023395, 0.0648507339857022, -0.024411854999613073, 0.0036167303647040364, 0.002564649370592777, 0.04118108072919344, -0.0004967457370190395, 0.05783848111673034, 0.051808859483626464, 0.007026455761085633, -0.007715812793479528, -0.07410497428256486, 0.05135383478375453, 0.016564760770044512, -0.03136976419094424, 0.010794687617038194, -0.04795766989819618, -0.04868412471453006, -0.024096005905008273, 0.0643989444574462, 0.035781070318074405], [-0.035151300609502736, -0.002600728880714861, 0.0037727079993713636, -0.011007431286596103, -0.0031189911522584136, -0.03300627951490026, -0.08151978540796348, -0.04970225789560119, -0.019227397430471405, 0.029574068537974885, -0.07284147485087512, -0.04723804981943519, 0.010259143664623747, 0.008201973873638945, -0.07152991675200908, 0.05944534745189848, 0.04544333356887438, 0.032312964590387454, 0.04928135667005881, 0.04686517574051784, -0.056254223642920057, -0.061874290553366414, 0.059092249612895824, 0.056705453152421946, -0.03355335599530357, 0.07283095135967804, 0.006014606114077072, -0.10490595540784106, -0.05735902354692629, 0.04321080292803673, -0.018915982300271167, 0.0607510660573737, -0.031642280534434096, -0.04508586164732245, -0.057795648698847034, 0.04086200430056792, -0.013306450201180854, 0.005554552030533599, 0.04302553286312186, 0.026659943744638766, 0.0015991600469916452, 0.013122875780216026, 0.057457602732468874, -0.07008848912265957, -0.030585695917384907, 0.006501144160656278, 0.07170633070764688, 0.054210874466830136, 0.00812039346259962, -0.01992271314468628, 0.03963598389679199, -0.027789986712966168, 0.11369918123570673, -0.06199032815162, -0.05521079177198572, 0.05130259965904846, 0.009653092497015063, 0.025153869978283283, -0.0029287078089387944, -0.019812739627915014, 0.029222911566908583, -0.02539333623809094, -0.04094656586747456, 0.07369558993616873, 0.03097809653147717, -0.10902282580620767, 0.03589575827528721, -0.046857248762846825, -0.030915954127187544, 0.05537401441325371, 0.020620883816531, -0.08244379380733889, -0.01594744828451359, -0.06550837776399346, 0.060456400172420446, -0.014504283846040439, -0.06112274022269352, 0.02144642726850997, 0.02733827187995421, -0.0036081051563913464, -0.031142510507371896, -0.01786668106531031, 0.0212220791419037, -0.10963392887591014, 0.048412005603316446, 0.023717019503243512, 0.012135792121779907, -0.036933932788420776, 0.03058153703572417, 0.032879803502477406, -0.008614539896105526, 0.045794390863355426, 0.014705760589608857, -0.03676471218869709, 0.06499852484333916, -0.059245280667267954, -0.025473621874805105, 0.018237969057817334, 0.041461580251088925, -0.0477204361090618, 0.004547064429106859, -0.06300092409458317, 0.030703023577848324, -0.09789108467429855, 0.011642953743122167, -0.09863046018400778, 0.016695242066168698, 0.08041490837130523, 0.028020134040416825, 0.06081894924432527, 0.07375002971314475, 0.11462325607983243, -0.07929504071045565, -0.08239670805685606, 0.021551645860378218, -0.05125229016885346, -0.08386521123939146, -0.03731167482747044, -0.0022469479654189917, 0.12436179939363708, 0.006764564347962112, 0.032817700356266175, -0.0182630763126072, 0.032469883937772066, 0.011047935653409864, -0.03731872373392434, -0.034787852176589334, -0.051036286486724564], [-0.04739911590727965, -0.054211379434886776, 0.05155953236285136, 0.029804121235094332, 0.015977836908074527, -9.647563911683336e-05, -0.01908853425669141, 0.021776114333928693, 0.01405998784785508, -0.03331689750496317, -0.04351617185885113, -0.02825462868396517, 0.013005304764875629, -0.027673613132612747, 0.03680325987559491, 0.015686845380365626, -0.007341949924349163, -0.10299165914013171, 0.031240799935859757, 0.004426216038498493, 0.05079684075332676, -0.10800301070118536, 0.01668290892999842, -0.009734860143721321, 0.03095274491338094, -0.09746369009509136, 0.04292705313767609, 0.03877209174104938, 0.045493236810897945, -0.03362499565332227, -0.012511696157785603, -0.029800742008083983, -0.012657820776559445, -0.09374253847080397, -0.042759361310350755, 0.00658424319663583, -0.018098208016283333, 0.018462839561532225, 0.1060319763135282, 0.05029223269120321, -0.054821640070130156, 0.12507332803876053, -0.002959136931964546, 0.01477023027703825, 0.002828061975242999, -0.05399143379703435, -0.0513807218659572, -0.08488570901600753, -0.048714283698166785, 0.05213951970203934, 0.012816726292419074, -0.06318990674285754, -0.016079847320337442, -0.0345893454405682, 0.02883706851467226, 0.02748053463958358, -0.0116554320139365, -0.02878196675193453, -0.05217831156564703, 0.005772526948399757, 0.03719367462939195, 0.0002873366532242589, -0.03788917136404664, -0.01726842155117873, 0.0312369387695457, -0.015466642682681444, -0.030171697862223675, -0.04944806313233606, 0.037396953408330165, -0.07034261954602644, -0.025837827973642792, -0.04376091223216559, -0.03551529837542971, 0.01106282762286938, -0.0016077651447175012, -0.024135441619198613, -0.007204864520114169, 0.0260797973487154, -0.03954110074918215, -0.06358649996801664, 0.051295652135732145, -0.007900359342350484, -0.057426266279139916, -0.01644788865280182, -0.001861581220985909, -0.033947541454088695, 0.024647316063661086, 0.018569580664403507, 0.028269841624413185, 0.0333034803100813, -0.04268044357473029, -0.017239502878456985, 0.16120472667407837, -0.03968758140601906, -0.016222451522281897, -0.00730904345102894, -0.03749035381850664, 0.013196497973375385, -5.852343579298495e-05, -0.12829287340671156, -0.015115762226688484, 0.010943444628509543, 0.07128867444680373, -0.024163877826668297, -0.02826728108923877, -0.01825477650888012, 0.03347163556997768, -0.0013926270699304835, 0.011705787570965862, -0.03145978418789958, -0.059297490840235424, 0.09094241671566404, -0.05806836388975155, 0.011164067100849308, 0.039905527184279116, 0.06051111844935705, -0.028765673033412157, 0.10361842396441782, 0.01861555626221243, -0.0451514144495696, -0.013757696809221285, 0.035655068140330495, 0.0810576538706143, -0.04667070783168424, 0.016287699119097974, -0.030590245536316663, -0.007839248717964079, 0.08080436469795514], [-0.06781308140713144, 0.026517098386223358, -0.01581204122708405, -0.0366325116477578, -0.04584824283219141, 0.002301960288516409, -0.03202769294333725, -0.022641382075857207, 0.04169789532622891, -0.016642569744242074, -0.06558986082238619, -0.031110865506411515, 0.05115441328360899, 0.008972876186753624, -0.03435020632197539, -0.09559142448579294, -0.02239245716042489, -0.04505297508769236, -0.06830183938106524, -0.036782971670608636, 0.01784416908297503, 0.058944412535924105, 0.012023472798176523, -0.018176111841674746, -0.05644319391592647, 0.057120470687437835, -0.07942238913526162, 0.004530220001300794, -0.043668610082062326, 0.11949510428567235, -0.11349510349564759, 0.03587499042083798, 0.014967080118961541, 0.03871602998405373, 0.030875773851779927, -0.0173766620078254, 0.06915726674287004, -0.022177038155078634, -0.0413275565074127, -0.0712090121642681, -0.09136205655971456, -0.05583675005435302, -0.05306966115606534, 0.004878159542495022, 0.0638344609414242, 0.025250092611002663, -0.03476291427146174, -0.024579502374175253, -0.02392025172769375, 0.06417889011794567, 0.025278827136599805, -0.004346075163846617, -0.06921647024589948, -0.0770277542459092, -0.041624142261478043, 0.0839759781768059, -0.024168688828112028, 0.10815025734323934, 0.00757968438144988, -0.07778318032529691, -0.06292071562322883, -0.1120001318530668, -0.08780142121932272, -0.02159197493384654, -0.03289515856036371, 0.0628373859926278, 0.04528633464076591, 0.04973717025042534, -0.03870937473018263, -0.05365100214434432, -0.006557212632992642, 0.04069629441981021, 0.03921121079471086, -0.06229841425613061, -0.07955064622462421, -0.01728702224465079, 0.06976041379480721, -0.027802800878902162, 0.08300657036406482, -0.0194607960256098, 0.03478162157081804, -0.035309639851386035, 0.029980039730529203, -0.02736374228695765, -0.0026415362651744686, 0.09736381393062728, -0.021935523132469915, -0.033566624647951585, 0.03521464284380465, -0.029304134564881488, -0.031672766889421396, 0.02724406981621974, -0.019748691630897264, 0.022942156687965874, -0.07175339274692162, 0.08466153001073294, 0.06145184008882894, 0.00846052716047567, 0.0063818623393477915, -0.04414903984274486, -0.0321276745441574, 0.09746593156660648, 0.05092934192618923, -0.006301596687574191, -0.0024085125030629947, -0.010049140275019092, -0.07343425502759875, -0.058502918665062534, -0.007642176324822909, -0.09306834094651004, 0.04607757532552107, 0.00542118321861193, -0.052784622314430596, -0.06604831434805358, -0.01251460049676623, -0.030035680744270293, 0.03049032664315979, -0.053755698329175955, -0.015521131066873434, 0.009186845780117862, 0.0582123627303765, -0.023456440745353312, 0.022233416988090705, 0.06435257554698581, 0.021655525530132145, 0.011986376510745952, -0.06677659913248588, 0.03320341979355294], [-0.039070967694748264, -0.04165982895470766, 0.06333411965846525, -0.03325144443444759, -0.01384097048879965, 0.0012747733402901978, 0.034353975982034365, 0.08290359853139755, 0.06161332046816097, 0.016954075038830303, -0.027146992239379723, 0.046211077969331146, 0.02100108610584231, -0.03964192634652258, -0.04141246974832061, 0.026909600649003617, -0.06821962186559015, 0.07947096466795915, -0.04184422387833441, -0.08580616650221173, -0.026955779757066856, 0.0016930014766993486, 0.0722703088158538, -0.09690556317909972, 0.05553254277618384, 0.004953597261354426, 0.0005887796362916253, -0.05126087860326759, 0.03782260814454095, -0.07916582966935873, 0.12574323506536358, 0.029636817195204966, -0.03410653788395497, -0.0591163860451912, -0.04118008825727849, -0.012280451909686964, -0.018393615696436168, -0.006239986180920592, 0.021090728988464997, -0.04004378719570869, 0.03347587153852065, -0.010812272462078738, -0.04385337338697384, 0.06042627723374146, -0.0075591808409328845, 0.011231916838848058, -0.01562521045386891, -0.025024842260391797, 0.043257865610737044, -0.030788696263499213, 0.04101481607121046, 0.06272412831689161, 0.04323162318793722, 0.07625706111357015, 0.012368010244709666, 0.01645137471318048, 0.02614896890214932, 0.012045768256702852, -0.003372396997629094, 0.05307297690266825, -0.07221616122754758, -0.01004690618915221, 0.030911303250951785, 0.0021590895405043265, -0.011094078285211667, 0.033194759541527896, 0.05232948247960234, 0.0500312341702102, 0.010243035203521532, -0.012086864626851632, -0.042131156599046406, 0.07071399158856839, 0.0497412312618679, -0.05250421150927706, -0.028667095843809314, -0.058614816633219956, 0.007614090327553426, -0.013961596847148015, 0.045365528727366884, 0.07836980197226903, -0.13897379771878268, -0.06795186453927678, 0.024476339343642826, -0.053165519241560356, -0.02961090109981588, -0.024488255742157558, -0.11145255710832473, -0.051892898641889174, 0.04930291500497633, 0.019074415171988716, 0.09571646520792282, -0.02785036121271141, -9.445589661670348e-05, 0.0812965195429475, 0.031281827968188874, -0.04734764241467305, 0.03135594033156599, 0.05992462700526958, 0.09098977925653734, -0.0451434912397114, -0.06143772561608407, -0.008816735256751602, 0.09197305106805015, 0.08591083925423931, 0.01696303423415264, -0.07000508379219401, -0.03990659403523043, -0.1294412778651417, 0.010310463627050235, -0.0182711357522453, -0.0005978739371905822, -0.052730773293004095, -0.01528195015707783, 0.030390902543869405, -0.027522608058416248, 0.02671765125246019, -0.032150542862959056, -0.02262780566774769, -0.021682663082938224, 0.14206643700609525, -0.08027735272997875, -0.04614831963866179, -0.007222721375418195, 0.049906232647665395, 0.0030846945783376814, 0.051038985080547106, 0.048531973484483244, -0.03235379740376146], [0.09364262182155789, 0.01117736142162444, 0.01935454794408289, 0.037942355747288735, 0.02423147642380855, 0.07263043880204137, 0.03498593912690554, -0.1444495396516411, -0.10677693570302978, -0.0004743876692673686, 0.026478863692724498, -0.057358599425371054, 0.0003616114289391221, 0.008452334309483611, -0.06234547328858964, -0.024072648719060924, -0.0007675088782519611, -0.06924192061035762, 0.014781482758317827, 0.012891040295456707, 0.07683507808478353, 0.025932781052699173, 0.08275090604124057, 0.01867921054006162, 0.10975895037032345, 0.015208490653674876, 0.031067550385811646, 0.007143589308792645, -0.03083381121588234, -0.13428840036834944, -0.008476129694873713, 0.05156983572575133, -0.05754408762195689, 0.028943958805206966, 0.00025828851281050393, -0.05041586651844644, -0.004435827219891899, 0.05685183192429876, 0.03396749308736315, 0.01243528486959385, 0.012078074516297431, -0.049581304071862835, 0.06354545307703705, 0.0436276036678126, 0.07382274576691024, -0.005453457197212595, -0.05631633129852687, 0.017919517708106344, 0.03208252312738705, 0.03837555268021701, -0.04574731681208363, -0.02955082237168401, 0.023896649975858147, -0.08592932455419358, -0.0185803563698717, 0.010548024822164938, 0.041154728155507934, -0.004045618529372283, -0.06846455596983754, -0.012182845303023028, -0.05746031826022084, -0.03706529294333522, -0.052711915091984626, 0.04987492611975439, -0.1183138854403951, 0.047791722276717005, -0.07553103176860156, 0.050814824251598424, -0.006834736279532887, 0.058001752841083595, -0.034103447780692915, 0.0624860919027756, 0.06746343783120212, 0.025868597692505498, 0.07495957837070126, -0.018350506040969702, 0.033674342673562244, -0.0048214827861328075, -0.037487770134532826, -0.06978789555637772, 0.03909505368289437, 0.0014625042583344453, 0.06293318106411443, -0.03210693160554933, 0.09764738148710583, -0.07154407439117177, 0.08575806348709307, 0.04408852104651542, -0.0836423888515284, -0.04381613309570385, -0.022328241186764863, -0.0017378242539449215, -0.017305888605507597, -0.06136285611822682, 0.018717710408736835, 0.03243499611620159, 0.0013891226865331246, 0.03137154418735094, -0.004722562169979565, -0.04940947650569696, 0.004795785657746719, -0.08143576728943429, -0.047053464207443205, -0.017708101011480706, 0.10778824862659742, 0.019662922665567063, -0.10909469204130127, 0.014882440959925365, -0.02015884871065488, 0.0068942776725080274, -0.0020317396887315035, -0.011606037828610196, -0.0222598831444769, -0.04540196593086164, -0.021094970356914138, -0.0011681386673254106, -0.11142094862958785, 0.07421768345508516, 0.021370562724786, 0.004267840346982207, -0.012428126735483332, 0.0703614086705656, 0.004238637219506371, -0.016031348818100137, -0.09215659695877489, 0.0071109618451855, 0.08721023361434724, -0.08632293994998745], [0.06714781120160812, -0.025856411450671857, 0.034022305398259935, -0.03662895915659134, 0.006366835291233638, 0.042470410440012096, -0.01735391111920451, -0.04772503533254275, -0.018471116704140797, 0.06466162637534284, 0.03897370066177552, 0.13760606748994203, -0.05079425778198644, -0.04488684832204306, -0.021958154346553543, 0.0027649059652365684, -0.025306886345507783, 0.11883368035534712, 0.05950774349616059, 0.0001007582461292166, 0.03564217149198203, 0.04857564478094115, 0.03825111557814674, 0.010940352781096698, 0.021447439677175606, -0.0670264606212886, -0.04076779991109243, -0.10715778941337553, 0.05811728551665674, -0.008737115414039093, -0.007172022687308598, 0.03491820325086541, 0.007599468369351526, -0.06204358230592284, -0.020206416016414618, -0.04776165839675361, -0.023374447150923326, -0.0021698735732326234, -0.01051144064130719, -0.022067770634467482, 0.08820125160012737, 0.028922787596540798, 0.032268347289943794, 0.02273876347092333, -0.03793200671092292, -0.07494503761814517, 0.041597623954285075, 0.06841749490307912, 0.01732722761340191, 0.08955007226730978, 0.04790786822445595, 0.037018925289173284, 0.04402385790346961, 0.019821545309976266, 0.039086733779130106, 0.1950761725750637, -0.013319633749401077, -0.08297449260752743, 0.01145317106075418, 0.002697275544983926, 0.007214308463151999, 0.007985995384291768, -0.07090757795407639, -0.0903562197994969, -0.01624145168319107, 0.04994345463071547, 0.018744765591186464, 0.054083881488749645, 0.003724872390099257, -0.053555322389409896, -0.012783103813485191, -0.051973063563976324, -0.027572349990480777, -0.08421925110450534, 0.0032110898982873025, 0.06630274163867053, -0.06479767309160456, -0.003037441420305465, 0.0022614020991248876, -0.030415416877297746, 0.024711925185417215, 0.0073257953661454035, 0.058742383286613666, -0.08349934220360852, 0.005867693723058421, 0.037751447629288684, 0.05535653963151535, -0.07105306801072976, -0.0560529438439308, -0.04082133679271213, 0.013813864315516627, 0.07697099678411269, -0.060215179723426174, -0.051469282864926406, -0.0271075108712487, 0.038208692500927295, -0.01832597231311621, -0.10711333042128193, -0.0002732443278316377, 0.014125045622578708, 0.08857451818266152, -0.10572031133799102, 0.021276516926661215, -0.037193176953174784, -0.017391369427807654, -0.12591330764815153, 0.02755933547091924, 0.044370778722297506, -0.038171238886725085, 0.041999606025290806, -0.04075229096272569, -0.011851183812942994, 0.060709088193536306, -0.036145048251165206, -0.026328541406029363, 0.10790550052492254, -0.005858717605868269, -0.044026126919188405, -0.04067043499445729, -0.030823512027091007, 0.017123446817580042, 0.050970864631723255, -0.06085664388510785, 0.012883557426026936, -0.02280800215223624, -0.10109765540132352, -0.012105379447418352, -0.04848124121394421], [-0.055016294273385204, -0.004693131103410686, 0.04887003791296528, 0.007577523511893002, 0.012289055304441285, -0.05656468138619816, -0.04685086817909333, 0.01059204597393665, -0.020574208491770576, 0.002351215548382518, -0.06995441287297623, -0.06761407412395136, -0.04735572951726871, 0.017156606770118935, -0.08458809565914512, 0.014373549448107311, -0.03120474159190636, 0.03925808765230871, -0.06089174648202293, -0.007784464115173661, -0.06190803935442231, 0.08644485125164929, 0.007225536545470771, -0.024168961437719412, 0.020605216071159567, 0.026667411699898155, -0.08406859154992646, 0.004539441901696194, -0.014112007209901047, 0.0032902688400604533, 0.0692284927476321, -0.04527527582647825, 0.11541704478575192, 0.08368846191887769, 0.01829464830890599, 0.0023932456914419944, 0.024538908554241057, 0.03966313800500171, -0.023051404785497744, -0.046565997496043884, -0.08395930853989624, 0.03620614101596628, 0.03256613840542155, 0.08826896220913176, 0.01144578641340483, -2.8649138332056763e-05, -0.013922779415596527, -0.0358662705027233, 0.0034305747855740408, -0.02475583259884565, 0.05849329689545265, 0.034351831003606545, 0.03511322024935348, 0.01141476411659373, -0.03060719226932528, -0.029700638494814, -0.09331229119823474, -0.04993705969496437, -0.0422154041530869, 0.09197298664872666, 0.002691059270106289, -0.0297510565269284, -0.10180146527301026, 0.017972400701152528, -0.004380726741053067, -0.09224427181906214, -0.05920352842833293, 0.10118798574170165, 0.04148576831749829, -0.017300536930686772, -0.12368314298200071, 0.041282791841258513, 0.06683426053475353, 0.11257493727817464, 0.018105472188788628, 0.06385758026642863, -0.05161648939849826, 0.06893537035628713, -0.06256143600139645, 0.009379737312701548, 0.011915336885414123, -0.11918216079229743, -0.025370627585130742, -0.014490765790196277, -0.07402199452600661, -0.008508584597660582, -0.022541935729326102, -0.09478003818333201, 9.824784230584707e-05, -0.08531707516724037, 0.009864972607943619, 0.04317210341391298, 0.0212749828487739, -0.03635690651147756, -0.015933065158547262, -0.049652875738808305, 0.042919713270904714, -0.05301679668987908, 0.04038249962032577, -0.041819004540172046, 0.03465127938918208, 0.01813087466303474, 0.01574461829787594, -0.03485005395181647, 0.004895129466602902, -0.01770272928129485, 0.07256292599738683, -0.029483503284326282, 0.07665974166093421, 0.01524410530504139, -0.15277326469742047, -0.05378402764017406, -0.008308681677213185, 0.008457751309321214, 0.06341921959241659, -0.0619982512981363, -0.09973011766207279, 0.04619474269023506, -0.04416968128589245, -0.11940398365655745, -0.017143910329103725, 0.0354347760863766, -0.004855163099923186, 0.07971077679050881, 0.012720116884173679, -0.08846943615540154, 0.00724489824279306, 0.008352459966938987], [0.028921418155508406, -0.07781911660522878, 0.018592490940220162, 0.07617852109105012, -0.023107199575646758, -0.08346286196563812, 0.03782043798794017, -0.03580601145961534, 0.031942225694509815, -0.06701441871499403, 0.04879667075293943, 0.03308107349945749, -0.055761842423465706, 0.0799855374718593, -0.03191565158425057, 0.02878321043152897, -0.012947930055682436, 0.02881610530348865, -0.023479909132250596, 0.017113717031253382, 0.02010698432672124, -0.06719718211588749, 0.04333990415281348, -0.048219543259009554, -0.03458897951430888, -0.008984152502455373, -0.030775117646188063, 0.025262693774598274, 0.06844013477244093, 0.04962808667482951, -0.04773290698583638, 0.006913313221603821, -0.038633629901158435, 0.012226720103163445, 0.07051966336347171, -0.059851494673513236, -0.03031543212308723, 0.011478825374562431, 0.08448510079347143, 0.061862831473055574, -0.053404046833385725, -0.01641412841979228, 0.00923570110211291, -0.010077062948792315, -0.009762692203381367, 0.02187752160853241, -0.042155658629001024, 0.010175620404334233, 0.01962739551676899, 0.03397642192141367, -0.004361639154948187, 0.014797104578709525, -0.004352506407109319, 4.946276480587959e-05, 0.01519454078305172, 0.02006750874261023, 0.005368309920428246, 0.058014795089042705, 0.0020812270542091933, -0.007578474586083989, -0.005159755768893606, -0.03851414887226361, -0.08579488348547654, -0.09370078778604189, 0.047277718334673674, 0.052398431894039456, -0.013384970353098758, 0.039452198196412554, -0.01546466257972174, -0.0009147257946929861, -0.013549434535982813, -0.008414206339128963, -0.06501323959242523, 0.07328436294103674, -0.07191786636764527, -0.11860955478384984, 0.04439298367437317, 0.00282768561470735, -0.05361329375390584, -0.053649756690876065, 0.026374587185269267, -0.049236292839497126, -0.04253301648633357, 0.01749055182219955, -0.018469136147339207, 0.022260574189606266, -0.05668643809220238, 0.001773167569528772, 0.025545999880852228, -0.025874208122964395, 0.023927858616030476, -0.04768591321941829, 0.04281734649029437, -0.04054275347980124, -0.07632391331037458, -0.019868794538476686, 0.012590719804574855, -0.05069312973045866, 0.0805644562453838, 0.02816596657568967, 0.08931611514735624, -0.01324323853196411, -0.05848102644922405, 0.03879984396194511, 0.01867820052562443, 0.02218780535132605, 0.011669981008009459, -0.05857641250820974, 0.01325541227816751, 0.06449229380781203, 0.047824335226628996, 0.02875657250287528, -0.03786009507608719, -0.054950275813658724, -0.035886933796353854, -0.029650249997538267, 0.027497102909085358, 0.004446776672178251, -0.07016334068839386, 0.030628730938102578, 0.021272729370004104, 0.12817188386347916, 0.03640383781979206, 0.0506074839877997, -0.014536879718758193, 0.05139332245907742, 0.03432883463429575, 0.007497057520344003], [0.01216747327684563, 0.03791167080574236, 0.03176048319817905, -0.02454428224504468, -0.06122100282087894, -0.055117558378205034, 0.04677821475158887, 0.017672678748059962, 0.017235346831459865, 0.010492884223634315, -0.02763177665918189, 0.0698099519115008, 0.05013350792379902, -0.016341826991588513, -0.0728982928274378, 0.0012932827897259558, -0.02362655380828762, 0.05440389907471361, 0.08494305893516017, 0.05001278459323178, 0.011256251278677598, 0.060093303337662204, 0.02186428489367531, 0.009990016624841535, -0.13508608357367125, -0.028296382923661142, -0.025272500458421287, 0.0325564435946906, -0.0357340986965207, -0.02584254942025595, -0.07997057604842392, -0.10851497106469206, -0.022111687868110866, 0.06113352345622486, 0.09378699081525323, -0.026827192322458327, -0.03804397019116004, 0.040097153859620344, -0.033829944676733226, 0.03793621946255477, -0.05257614460278111, -0.0006898955516208051, 0.02238355927426685, -0.027844540940642284, -0.02444509771203957, 0.04706738977722992, -0.05771787857888579, -0.06694996493517358, -0.05083111311196055, -0.019061315167716482, 0.09278204062500171, -0.039056354866833405, 0.009045496545794162, 0.02361842653794398, 0.02689912649483012, 0.06572762124837561, -0.0260304993328842, -0.03240940412473945, -0.09290609255598575, -0.014732004878251975, -0.012043071711550531, -0.018998562621585963, -0.015593771734944195, 0.04559630274959661, -0.03489002871639798, 0.017628426880820107, 0.00855883613846612, -0.01067889068810979, -0.002912679859930485, 0.05252646013077701, 0.027447053468576465, -0.07489913869001193, -0.05271066401057841, 0.018548544280992327, -0.009272876306908194, -0.011103725872716129, 0.07519284435603579, 0.0336462589648948, 0.025888319263006467, 0.10190715543979173, -0.0601011795215664, -0.02762549314417294, 0.10309955715555005, 0.05511781625734316, -0.027535895712272964, 0.04358453926723308, -0.004653814472513387, -0.05186467793378164, 0.006764567095777673, -0.055282533678175406, 0.004228105812322001, 0.11070832552213716, -0.030661501810813997, 0.03271283793923676, 0.006100321982222489, 0.020146091775162668, -0.022439362846568688, 0.008181590196930079, 0.07991236345519925, 0.0005802670653858519, -0.0192970083304376, -0.06905047507647083, 0.002905180061074875, 0.15573098462152046, 0.044736502491541326, 0.03665588601067064, 0.061964760485406, -0.0294540611290442, -0.039186766920345166, -0.08930882898223594, -0.13618037499239483, -0.007169659309403755, 0.05719507335193457, -0.014540550670691037, -0.05969927762141391, -0.0459891036406322, -0.016284533099842364, -0.07089803032832033, -0.04790817363557136, 0.037858667818439336, 0.03517158640994823, 0.005757952665527317, -0.012614572603390061, 0.0556858932491387, 0.01834401257133395, 0.04998818629643756, 0.057465547196381646, 0.007345767512185019], [0.05736614037508431, 0.016214069926738586, 0.01179107051055857, 0.024728618899196544, -0.00011377340465144048, -0.05478187807151579, -0.02865455990641845, 0.036392951138134774, 0.08042154098534791, 0.034199202331385924, -0.043656552851309406, 0.05000328904032318, -0.0654526699173036, -0.030499054229521188, 0.030565717975894344, -0.04726739561521765, 0.030358825860681924, 0.02506742069550828, -0.029740922292487874, -0.012499158172160204, 0.007778750443928666, 0.06631225543162848, -0.027158412312080663, -0.027218645292688155, 0.014962172516139401, -0.11349256856494322, -0.016674236333232523, 0.013340228557385564, 0.02845415391236235, 0.05135364310879844, 0.03128790733377957, -0.057392808227879274, 0.006829308322100407, 0.03062539519882588, -0.025397116973718662, -0.03938491516795493, 0.05577814836141958, 0.012804395373350772, 0.02199059413442923, 0.05116359489667818, 0.09517567269877951, -0.04164145799231818, -0.07048860425417557, 0.004518202855184324, -0.017657612872096797, 0.01586609299409203, -0.09396661259752304, -0.04814107711408892, -0.00695447866803896, -0.014297195588956214, 0.05769228077563393, -0.02355510066532326, -0.11265959219395578, 0.020295379712991894, -0.06288112464376541, -0.047410787876999115, -0.07381966306816884, 0.015554342397632509, 0.05223899698411844, -0.032434458257470995, 0.016145405514023575, 0.048934020134762696, 0.03930501559814578, -0.04325207029639659, -0.036689803731352943, 0.05067905638830742, 0.028414608568232358, 0.006727975306807106, -0.007053580708466707, -0.059956706991396935, 0.0805708258233155, -0.00035423649071448685, -0.05982294800621397, 0.06393127547465399, -0.015005790926093615, 0.04914129092387318, 0.01396282960325146, -0.06507564219216104, 0.01804358139784849, 0.05177252500083231, -0.030984597016017728, -0.08887637503907482, -0.026566256734995623, -0.09906601412091671, -0.003869810651445045, -0.03784095047828163, 0.049943227485467326, -0.05346335613142145, 0.06214586288131472, -0.011509863590337557, -0.01770208927984606, 0.006494660345360978, 0.09371106227521639, 0.012978895648515225, 0.0984927994417084, 0.05983190760204506, -0.04229556793399571, 0.05897798731997379, -0.0325690263590319, -0.03252530632433665, -0.04349113522621242, -0.007872308465542106, 0.09587162136808475, 0.021771026245028694, 0.05415589034020697, -0.06162476315435123, 0.01216334464587478, -0.05955290374890714, -0.03275262613451435, 0.063465638859867, 0.025025787317594615, 0.027613642966659295, 0.08200031890682567, 0.02292849198157866, -0.041209390742490914, -0.01748433683707418, -0.046939624312328024, -0.038522855458635194, 0.04278651651206129, 0.02089464243833763, -0.06758881409990213, -0.0729488548951196, -0.017139587365105156, 0.055129191408820284, -0.01750835312832473, -0.019293349947527513, -0.030911160368739646, -0.01113167486617006], [0.06077989500937854, -0.016164882965263274, -0.009431886751352118, 0.0370371141016549, 0.023747279441833576, -0.011732703350103794, -0.154677495442323, -0.08430761558975099, -0.0675697023764846, -0.01749671152935554, -0.034974306316079576, -0.06076011064554535, -0.005587483085570708, 0.016286270158795725, 0.07359779195785007, -0.05155403628669413, 0.021844609031581395, -0.06866088410787091, -0.1272784732822943, 0.048119782608142196, -0.04133557279000449, -0.024640013195224783, -0.023516880875270284, 0.039700818165911866, -0.007519902829167355, 0.03275900441320369, -0.00439686684986822, -0.07715366118897324, 0.004742066751558371, -0.006081993918736735, -0.015149903520315932, -0.010248722034633569, 0.019468888261523987, 0.0359764406809501, -0.028861544917356704, -0.015634353074336544, -0.04358160727770324, -0.030825065450639125, -0.04413677726260332, -0.02790921218443934, -0.02404936004478596, -0.01099000160273127, -0.07884902110642372, 0.046548664442693524, 0.015583050328886747, -0.008793847774916402, -0.05025059023864972, -0.05508546081132528, -0.033118129185039, -0.0012413020954487755, 0.007882039629009558, -0.05463480772691468, -0.016588630695454607, -0.11060742711619112, 0.008404615251440142, 0.0092229081051228, -0.05323080091769909, -0.0182215621622042, 0.06718019539659814, 0.01873677116805726, 0.02859554335016346, -0.02677960946609083, -0.014228888916058127, -0.06728338644265316, 0.00804073162097111, -0.016925167638122973, 0.05181844080680833, 0.010559815842876977, 0.06382151272159763, 0.023161220897123223, -0.06721191064922716, -0.0003871118370213937, 0.057105596942441925, -0.010717881958703695, 0.03918036339724295, -0.0010632905622302558, 0.003073040935914163, 0.026999460108075857, -0.018688499961985985, -0.0487680539132172, -0.05270106459549579, -0.007555064931717987, -0.06720172217800664, 0.03494053358273293, 0.03386947194627525, 0.032170084823673506, 0.0443086871015077, 0.010716343079175489, -0.019220432601582748, 0.001963657238939782, 0.04375232716652152, -0.010150264957943467, 0.044716949048815006, 0.030926140824358447, -0.03352007889210227, -0.04014605587778196, 0.040102008181504126, -0.06689310132848654, -0.003090792770112693, -0.003065045126391251, 0.029098128131166266, -0.045074445744916494, 0.006963467719026451, 0.010321043650915903, 0.07762415597584683, -0.06027784683007854, 0.05042628276706, -0.07510057037227644, 0.0149669964744475, -0.015605892099466879, -0.035826748738147784, -0.07264842174796146, 0.0038440972316512623, -0.01982480305094194, -0.010321884515232999, -0.04780836495753277, 0.04975677639802953, 0.020380816603831408, -0.03980461412851807, -0.04944015510089543, -0.014056580338147873, -0.0081334860806773, -0.014781751194678212, 0.06262161412560861, 0.05918225221334089, -0.04632696440259881, 0.06553171598642472, 0.04783358314032825], [0.04559607525079198, 0.06072136672033471, 0.043408797401866456, 0.005691049257962556, -0.04506554625500743, -0.007977553648900494, 0.008828289894255116, 0.0581581358900957, 0.002763988110765185, 0.005367225755272853, -0.030765863521380186, -0.01719534539633321, -0.00855512184095155, -0.05846679278163429, 0.092744254611542, -0.03605312046692708, 0.028320097609405917, -0.06860759118140497, -0.01661248455698216, -0.024661716764599623, 0.03188253009123405, -0.0008198688229773863, -0.0459863235873579, -0.034332204976527086, 0.009672305208467775, 0.06515420040593181, 0.03813599930092128, -0.07813477985584773, 0.0010607923233312583, -0.03735931200377081, 0.08165564621132425, 0.0265758141599291, 0.060055505275580186, -0.08768835788496869, 0.0721884156281769, -0.014652660584792051, 0.03657085374813096, -0.06901117071629016, -0.0017159050269265404, -0.043478462850207095, -0.001449953035011352, -0.027195707488838226, 0.02003422013982837, -0.008385022169922762, -0.08545776657632809, -0.009810797948020299, -0.06984160687255349, 0.0018624440815696863, -0.04691784589073805, 0.019885998395486312, -0.029811734693180846, 0.12030323440282369, -0.015550081425127468, -0.03370694505164642, -0.000619569442467277, 0.03484588128738036, -0.006517726222684078, -0.012624807858159628, -0.09809565315416063, 0.013306179630831355, 0.029906183602420974, -0.019819379573153856, -0.033921724847246953, 0.05497782166309151, -0.023010703647167105, -0.01323473575977338, 0.01983956876200121, -0.005985059784558822, 0.012426238265113977, -0.015564380149709667, 0.01637469093474335, -0.03894683731947762, -0.04689563942428334, -0.08254317826531499, 0.0038658156649914437, 0.005350753506913918, 0.03210941118659791, -0.0048896112580250365, 0.05477731128398279, 0.0352080220364692, -0.039012467053768415, 0.0888797180964174, -0.012130866271744641, -0.025348603801053377, 0.01236853955615777, 0.005357699583969852, -0.06462381279499438, -0.018647014185657566, -0.08376873260449944, -0.08712733667749976, 0.04818541811999629, -0.05839150025494269, 0.04987888236126822, 0.04293894204298023, -0.00027624522785581424, -0.03731114229081256, 0.021974339435445113, -0.05685007759363056, -0.03142436284577525, 0.05217523001903458, -0.0621086634995532, -0.0893124984660155, -0.022634652189576183, 0.014554934322802365, 0.09140082095001013, -0.07163795892774502, -0.054496871009727374, -0.011736404587381502, -0.03476702484082055, 0.0682281070844901, -0.02393289026478109, 0.04283960748243538, -0.05512838294391432, -0.03946161329341545, 0.042392755888676845, -0.044465713407280366, -0.008421978189737155, 0.08559247304828543, -0.06503862933885678, 0.06210874371955524, -0.013787393554664103, -0.003945783112242186, -0.026066989904111448, 0.0524480850159671, -0.030834640011590593, -0.05039801603805175, 0.0064675145627004285, 0.06397035672885744], [0.06891894194709296, -0.011631037073700367, -0.11740218280618063, -0.010416193693876453, -0.07007387230635585, 0.05278840876957191, -0.037260045458551556, -0.08968990810715972, 0.048540082465795505, 0.06790487044457642, -0.010227659539389448, -0.0018225532529212646, -0.026175052376463934, 0.03864033118642656, -0.043184994705102876, -0.04169467038749267, 0.016893983201432733, -0.05835272620976822, 0.04354874193482688, -0.06871098965140619, 0.040542827624324936, -0.010349580112836031, -0.03261369371061866, 0.02913972323638153, -0.004900818748254513, -0.03444122876763256, -0.0006902305911272235, -0.06602956042557556, -0.03417455694713799, 0.043166025487781506, -0.04355744795394888, 0.020028037361335443, 0.023828920394534946, 0.07497496391082324, 0.04424105419550665, -0.06390906254429096, -0.03801857191751291, 0.04440880451607969, -0.0307830070289266, 0.07709158097922598, 0.03905013540578445, -0.028918776733847424, 0.05834720972880119, -0.004852290804289498, 0.04691853476917526, 0.07469126221281037, -0.023492210612708907, 0.045583279608858086, 0.02805531601636704, -0.06119054605039624, -0.02827998582556958, 0.12976457899642918, -0.010509693809360284, 0.011295183194131052, 0.01954174914151711, 0.09363186997154266, 0.0034767948816412956, -0.05376450143805265, 0.039883648401933876, 0.021662994689777205, -0.07028889406236416, -0.007031445714449137, -0.057282700513467, 0.0208835782810851, 0.0367479786791835, -0.058326563269806626, -0.05321657829178454, 0.09896354249032094, 0.03459969973467579, 0.07648910217922954, -0.027493926585092598, -0.0029090353299672084, -0.048708243503017265, 0.08116064570556472, -0.00508076398819782, 0.06163775671288701, 0.014222880754450891, 0.02632736924714385, -0.002139912995292269, -0.06848673512808276, -0.024180178556042105, -0.035588643900478056, -0.016525271834554673, -0.016703790632054013, -0.036813394399134766, -0.020248347221914226, 0.0312724998608515, -0.03517760104933885, -0.00930144672209566, 0.005489482552128606, -0.08967472578844832, -0.03020521055174544, -0.015223538345661142, -0.010214734652052993, -0.03488784921584482, 0.025032027647996672, 0.041106721336016845, -0.004405059789629588, 0.0027130378091161475, 0.05523397311346053, 0.0367398716820292, -0.008458214138448137, -0.03463098417680447, -0.10136888343415637, 0.03032388227506222, 0.06719019415253888, 0.05547565958132769, 0.09049827159817143, -0.10016309561524572, -0.0006639116207687038, -0.09873159780134069, -0.06298031911991053, -0.020188282320015877, -0.1454951583007306, 0.05533656151110466, -0.029064763709549333, 0.008512273860235094, -0.037094583665282635, -0.03158638898878041, 0.07293435218060869, -0.00023946350193286523, 0.027372097294478356, 0.03363674994143715, 0.008339079970796288, -0.02077301651959446, 0.08281448278930466, -0.005227802188979526, 0.017477259858461217], [0.058860492040273035, -0.060805072323907645, 0.04962012804981049, -0.010931583814900628, 0.020259304877156104, -0.03167999701006162, 0.017329058822881587, -0.002101771499223427, -0.025112667639235132, -0.009775196264248475, 0.027530951815027935, 0.013555247363174693, -0.004814409205213079, 0.03065535977222477, -0.0013855532759806423, -0.022365186004527794, -0.025965302212272175, -0.029948855840750035, -0.06980077038622148, 0.07102822872778018, 0.04556477267097354, 0.009361283555594943, -0.01688723550951335, 0.04591533975212589, -0.049899304562658085, 0.02011998095990437, 0.04686640092723741, 0.047764584823283135, 0.017592245808060628, 0.06046993330579946, 0.026470133032502088, -0.05601364922287064, 0.03215052638778423, 0.050542293592553196, -0.04382075523533677, 0.009941385292201226, -0.10361232140910451, 0.04005846833928793, -0.0424431817411438, -0.023081997612924857, -0.0025152623573308293, -0.0361610545246652, 0.04354554353087973, 0.025638042158114466, 0.05228277350767097, 0.04465850610091668, -0.07684471203646087, 0.06657280042944742, 0.02572208568186844, 0.011274340069752347, -0.0372852978319065, 0.08626225533740925, -0.028701296440958812, 0.00636772183533179, 0.06712510782854644, 0.04702782722909654, 0.006197541036433506, -0.11201913882711322, -0.03910315332175579, -0.0169547783056866, -0.03343932591451631, -0.021151496043838067, 0.1071167803509306, -0.054283129405757795, 0.015548364411594946, 0.014260428973816602, 0.07201343695454224, 0.0012708701570597314, -0.08531989336757552, -0.09901953929501484, -0.04763613148183826, -0.060037493618172545, 0.04135112343636902, -0.050491079274478934, -0.07099917754026572, -0.005574831992820754, -0.05984950291316041, -0.09873196419212096, -0.01840412645908372, -0.10294220883178622, -0.03601898035760336, 0.045938637417684114, -0.07461711905272403, -0.02391682026058559, 0.10322590744117209, 0.033485147613689134, -0.035392232752640564, -0.03672065899544336, 0.03515697278959436, -0.03627870381738269, 0.10234564877969804, -0.0520160342091938, 0.01660907526235461, 0.036583674137493354, 0.05362501541160027, 0.11467486734124667, 0.0043819308902656616, 0.00896100053879851, 0.023178911030687484, 0.02357344173774469, -0.0007091723647957538, 0.005821129329709129, -0.0021353966055604203, -0.06934926931923358, -0.03044799911959765, 0.005762276185756217, -0.05018985505671189, -0.015307763255750865, 0.03365046826153704, 0.034005796960239164, -0.049802476693703725, -0.005412628365218862, 0.0523933827241122, -0.08341671341582033, -0.019418132049502025, 0.019395195197620438, -0.0036711205723248155, 0.046879217674779615, 0.01022520355584094, -0.0052973656562352546, 0.009036161312375257, -0.06239693474429692, 0.004481843270544181, 0.028822385084178854, 0.045672217917731274, -0.004627535154968422, 0.050005266935102544, 0.02023026543504001], [0.018544261434917293, 0.002205706887480337, 0.0553408849644529, -0.0038314287092277395, -0.14391921834962676, 0.029461662395633283, 0.05618418877167228, 0.02688005663385034, 0.06453325371365425, 0.06498788455513657, 0.008644445210545543, -0.03555233288064952, 0.05394384725284766, 0.0403280344829101, -0.03739585358641513, -0.0008829397138484748, 0.054356512523423176, 0.030778059043895738, -0.027874487753728982, -0.021862586493678768, 0.0012584022044767127, 0.006751951287817064, 0.03957368636746007, 0.020132982825886013, 0.017943643062541127, 0.018331510727590723, -0.07179510402061845, -0.07345156980933046, -0.037037204702574635, 0.0786518720116765, -0.036060978284174115, -0.015241751619373224, 0.04062625307695523, 0.013254376159033566, 0.02187136012329506, -0.04370853240241112, -0.004616683395736825, 0.009126256826748684, -0.11612585672906944, 0.012559337072687126, -0.010860323418028738, -0.0181385416212052, -0.00846302909097987, -0.023874415053869953, 0.04966848544395862, 0.11298927315861558, -0.02236894093015382, -0.0023848746222717714, -0.007249299710417225, -0.0244401126287291, 0.00021033653274862133, 0.05989562419603698, 0.02820482066857285, 0.05663675146701912, 0.025767310413427915, -0.009571929963176835, 0.13907539603633384, 0.006058728751797372, -0.0644119195905647, -0.0946629443422853, -0.002224376922652817, 0.04258353486367563, 0.07285495900978227, 0.010598595756139575, -0.00407325157691632, 0.014142338137348255, -0.06743680226131046, 0.047087395800400667, 0.04417351015241086, 0.05701544741023609, 0.0022591311661350802, -0.00010491166117748696, -0.012743171179765634, 0.047966185596449315, 0.16546770290800863, 0.032696715306162326, -0.0015964203772097535, -0.01669430882550529, -0.08783454688548806, -0.0006667276585065387, -0.07613401683847686, 0.06179640260132256, 0.03257465016271906, 0.02721807977070965, 0.027320325747501924, -0.004724100886848541, -0.05695706570776823, -0.049844714511377494, -0.026330161738001366, -0.03958343413595859, -0.042268619509892434, 0.031972164217594516, -0.009573527228748643, -0.04086826411528167, -0.0448362614708748, -0.049574589037310046, -0.08250931397988323, 0.07700481730372279, 0.007313373206895935, 0.04674754276681442, -0.043873815986707365, -0.05724629315024321, 0.03125316080056302, -0.06547964063473428, 0.04542604671386671, -0.03231189627069437, -0.02390823061490604, 0.10832397131346541, 0.06733008056434474, 0.029275124432114594, 0.04194885441066279, 0.04566848558412554, 0.025347749046330217, -0.06902389325395064, -0.01809831428858651, -0.0107900990672752, -0.020110935128435637, 0.036563428924193446, 0.037235682714227475, -0.021112268488908528, 0.026420944235377962, 0.01641099575786563, -0.00010117820014303904, 0.047074266018693585, 0.10142482338313678, 0.0022150064317883376, 0.10103520597145421, -0.12491331370061877], [0.03882365566343382, 0.012387435502214238, -0.013259156600802133, -0.05628743135047151, -0.03963614235947126, 0.059331983531391096, 0.0419117633100123, 0.045299880772018936, -0.05601136791038031, -0.07468735942223112, -0.07476244685336696, -0.03552705083876413, 0.02112118886292481, 0.01793917445292076, -0.02683952098247261, -0.00017095277482924727, 0.009413295402632383, -0.10420381154793729, 0.04729681171243014, 0.06149020027763533, -0.050182893436610414, 0.025650015266618725, -0.005620171058155616, 0.024281629212114336, -0.0030655454956358586, 0.023243693655655862, 0.07179582762818033, -0.04151679147427308, -0.016423569853349935, 0.018515459764413135, -0.000646482905045833, 0.019438080976530853, 0.0040168722759636585, -0.0529409114024503, 0.028352643082746893, -0.06631096107497102, -0.06505741594274178, 0.05878137414601536, -0.08939426196796899, -0.0795288925491584, -0.08977194389161404, -0.0445125997453862, 0.003839979971395328, 0.026684584988797905, -0.02585694352141791, -0.027970032868007543, 0.0010318466130217851, -0.018495194470823574, -0.07093362528512734, -0.05353513833128331, -0.029759338612186794, 0.00879962693056494, -0.07322456018118302, -0.022396290506700375, 0.04238428287933769, 0.1065841646169318, 0.05547874436373445, 0.13281870525974976, -0.021544049156948242, -0.00011788441478179295, 0.007423603581806879, -0.07215399802061719, 0.009800233134254157, 0.027918585168771548, -0.018827209215085357, -0.0456205101169983, 0.0441480072584154, 0.018186121043443623, 0.010216628033873501, 0.11234593348531248, 8.536027098525393e-05, -0.09708172956423601, 0.04726158683027521, -0.03243983287193662, 0.005138972899398708, 0.026538551545632713, -0.03306824264115435, 0.03003065455456921, 0.005586918947534911, -0.03381170925145608, 0.002459408243765292, -0.018910669442241953, 0.09492694945299021, 0.045743279163883134, 0.04354584179555569, 0.057015710280098754, -0.05875409249112359, 0.07484267419347612, -0.062350848829252424, 0.006689922749999411, 0.05116137016364303, -0.05292191520484331, -0.0466060243419748, 0.03913830734168488, -0.0689698710138987, -0.062459662023538795, 0.03137151774691234, -0.007073764329006804, -0.07710899915435085, 0.023257749065066377, -0.05554322397175353, -0.15207650901665948, -0.023320948554458484, 0.04919211208888504, -0.0062950532908157, -0.03876354673527223, -0.0250647197925999, -0.031976514800570004, -0.05761797623819459, 0.012185721860984034, 0.027340399621335894, -0.03178677827659421, -0.028770639861181974, -0.01374914988290833, 0.043461036571349115, 0.1165625591185983, -0.03257196469156947, 0.0318425062162013, 0.030948643772384148, -0.011170397264191398, 0.06813585261988772, -0.08796192756916354, 0.06137753460306352, -0.0070351220319668254, -0.08130720829190119, 0.03123986046211455, 0.05394625981032677, -0.009093812626308248], [0.03861821146390221, 0.02078297531367493, 0.028799975430384463, 0.051531216458622325, 0.026417189821031008, 0.039212074074492426, -0.0594121738418312, -0.07511961872763497, 0.05272822337536233, -0.018680367842946605, 0.04849565106138281, -0.08518464881794394, 0.05403842641498896, -0.041299205070181366, 0.026970536990524038, -0.05819008038546544, 0.05829284666330455, -0.06631465318297837, -0.001330191547477497, 0.059624596744052245, -0.03694257595222725, -0.05983940542241599, -0.01590345649984001, -0.04334540231671665, 0.03699415088999905, 0.05649526909231731, -0.10153291036229557, -0.04095102097118128, 0.018257307648314697, 0.04312334434277554, -0.05290297341424397, 0.06509282238700119, 0.040420389792740465, 0.05001787183853919, -0.06675307529111743, -0.02954844886037291, 0.04604051917258364, 0.03732348566087672, -0.05000801425106575, 0.018045413488754495, 0.10947226507693726, -0.014641479191131073, 0.005422832586307953, -0.009952432059805078, 0.02796371443768349, 0.07075227241181692, 0.16769115874196389, 0.03405260697146842, 0.0007344094081186672, 0.046219334048597106, 0.005530434020169436, 0.03944501361728288, -0.0037985521810343513, 0.026808128695700945, 0.012079148512772243, -0.04766225392028013, 0.09123695653523346, 0.02839696943425997, -0.015999779326332824, 0.06641570663387297, 0.005655329786078171, -0.03257944133811791, 0.0886240011653004, -0.017599472380680263, -0.04938650834844058, 0.06038243448981307, -0.03067287862819262, -0.0029224558424587595, 0.061273683593369516, 0.024363038629110715, 0.006316153906535139, -0.1530738381010865, -0.0014593572924146009, -0.04746862177361271, -0.045983359274211856, 0.05878333740575257, 0.011474253156691119, 0.06365816934377959, 0.09694399977108933, 0.013020466945774177, -0.10813194513866495, -0.0316104102138581, -0.015720013655237824, -0.009586650208747634, 0.11069602808153951, 0.027964290297948575, -0.07951696942444979, 0.005263982537514986, -0.036478579956445156, 0.07401397545341136, 0.015094570801208428, 0.05201459614013841, 0.05956349774857834, -0.04886931265175737, 0.02219586764748847, -0.006977903498307268, 0.09903885993384236, -0.029289378233477614, 0.037813709340036354, -0.12039223174054145, 0.022992107510601083, 0.05667049570107196, -0.05360728220933978, 0.08876157418411056, -0.028450083309635932, -0.011751478454647765, -0.020987267676862573, 0.020743799984486548, 0.008013955633006806, 0.010113352883740732, -0.034123902001691214, -0.02364728041956682, 0.07497256064176709, 0.06705580608439281, 0.008980020974214348, -0.015881783548252225, 0.006483841935178543, -0.019764722711847506, 0.08811597285657687, 0.034223664970232194, -0.0662447848828834, -0.052293853621210425, -0.02217531452854626, 0.021740049054679488, 0.0016636878622793036, -0.0011659826955950868, -0.0341961498029714, -0.01266824313841611], [-0.054205868158756165, -0.020206962398781756, -0.0036320546220422276, -0.040491333836284435, 0.04095156503041316, -0.017638393506470867, -0.0654643083542132, 0.012990790980943957, 0.032088303957103756, -0.05006571333413142, 0.005054660534743615, 0.024908841371432518, -0.09657783961981235, 0.002878064206261686, -0.02448612311290646, -0.02061100183440501, -0.10901137621969408, 0.04929422314166122, -0.013291844593878305, -0.02345845334707989, -0.003637707209787291, 0.07002869375965794, -0.04736852577748501, 0.007115681668862734, 0.015355542937614455, 0.01829225125920843, -0.011065286732999034, -0.0289721214842405, 0.0014807577055448097, -0.09369034025700793, 0.037849024984753184, -0.03449241914392728, -0.011766641633804465, 0.06685955564176327, -0.012095346545214176, -0.06323793545278855, -0.1313739464889434, 0.016732808305592442, 0.08141135027614124, 0.06618597215623141, 0.015082839924213727, -0.00994529442916742, 0.044169221283389196, -0.024144295431251763, 0.09744547641867868, -0.004023224140053411, 0.021278615682227442, 0.004019061000971655, 0.12424725603403154, -0.0026014693699562236, -0.06932460628621955, -0.026508576209554748, 0.009062442117244201, -0.03210939696590138, -0.04040791198534721, 0.03890319427798479, -0.012363992843374902, -0.031500019867351486, -0.008157716119021425, -0.015842467121997775, 0.07443133746623101, 0.08216896717247298, 0.05763841797078756, 0.03994305789761081, -0.017235273163535254, 0.011956361054030619, 0.0077150336651895185, -0.003579241597138215, 0.03096182876709639, 0.018733447505786916, -0.032181180849245705, 0.026568184998007942, -0.005951476536596451, 0.07700286732306123, -0.06074674298744065, 0.039557809083609674, 0.12014750197980845, 0.06684928416940965, -0.0781494252856259, -0.00848710771276109, 0.017799422579787828, -0.002895225098448383, 0.043289075734040505, -0.0509321089115267, 0.01599125408123632, 0.030706606586821485, 0.07060370770939958, 0.031360068915820286, -0.13439708562514777, 0.050287390197709295, 0.022503699144386432, -0.052421139420831056, 0.08068766899707454, -0.01088865577479115, -0.13865549063687901, -0.05095068276184338, 0.03785932378769529, -0.06236331036972113, -0.0204517395825903, 0.03351069885567483, 0.0312926950490869, 0.038770181906287254, 0.06293609851050197, -0.05308874060441496, -0.0032496460775527716, 0.035949239583994284, 0.11427179577079208, -0.013013458998214664, -0.05774318602821826, 0.0444830600472236, -0.04528698461211543, -0.0001044019237654347, 0.10125102924112114, -0.02021211947757304, 0.0420087925612367, 0.020173238976062283, 0.07994187172360591, -0.006961287529401829, 0.03593792060179188, -0.0467720729782839, 0.0058196417609154135, -0.09465219106502396, 0.0012340741464500692, -0.06571290110874724, 0.007438603740628547, -0.022990870739852315, 0.01715344578138043, 0.021409264911050704], [-0.09934737776011746, -0.029410576592110223, 0.11428370877253242, -0.08007886638573862, -0.001285753476166652, 0.03607595570636145, -0.049771475517923415, 0.0043162176071365, 0.08526145123094159, 0.01650110390851179, -0.04085028225172726, 0.02961092886755358, -0.032350176854881015, -0.021793422836273436, 0.0902826434171863, -0.03254598957781004, 0.0049162645466680945, 0.0033041363978605597, 0.025076678849372157, -0.06144899243253747, -0.02267618933304519, -0.004497341092495494, 0.054452451265583506, -0.0014101004576347765, -0.09008004265950204, 0.012283232471781133, 0.05834012742936149, 0.03827424442514769, 1.562626692680109e-05, -0.012990773162095662, 0.010187667638821635, 0.017005433514788046, 0.1071229876627881, -0.09643499971672896, -0.0008599869028272639, 0.04297608664998954, 0.034580234166169024, 0.006035220817015382, 0.0443791092002266, 0.03902548630260351, -0.023595398118713008, -0.04338240212627308, 0.018290438371595653, -0.018310855152412632, -0.034043007445555926, -0.04712235269944466, 0.025475375195778062, 0.0003939508946242825, -0.05911206062641442, 0.0439325512051134, 0.1311667263203739, -0.01053183191728201, 0.033346546252054354, -0.01050857620432145, -0.02940430531867471, 0.015207202501072518, 0.0734408633650453, 0.06304712425319017, 0.0382158070878616, -0.011238704673598204, -0.0011304315571462433, 0.06296824657022088, 0.060297316165851995, 0.009323918225916987, -0.011813482848455443, -0.02436652433903469, 0.0324236412655632, 0.06799971029428305, -0.011308792341629468, -0.01189676700718904, -0.022154944285050153, -0.023189011533753245, 0.02831895403431528, -0.05342276772721612, 0.0419633461978189, -0.10388022425140007, -0.04180200344821819, 0.06715720541225852, -0.022545884072229863, -0.034545536969287645, -0.05770150121302448, 0.03212471110661465, -0.10844010886381979, 0.02172754694662705, 0.021886916408520838, 0.037442592386044124, 0.025099724204105472, 0.07253536217615687, -0.037911981454966305, 0.062030190709860586, -0.04857293863401776, 0.03229591973278573, 0.07301072843780591, 0.08930753196737673, 0.07006017717779657, -0.050547481629428084, 0.006335869274764322, -0.09692108941008419, -0.0702267784116602, -0.020490327247427095, -0.040132415410861884, 0.04033928924176943, -0.022905037477819634, 0.0803841106048661, -0.07472852316405364, 0.12580083100900918, 0.01868551267037774, -0.031149740756682042, 0.013401237112711377, -0.007327054753793133, 0.01386633753556815, 0.057285699503938345, 0.027547886914958335, 0.03350221161957262, -0.0015184208443077502, -0.01180954798181507, 0.024220307360476884, -0.07043459383235226, 0.004540445497105661, -0.015447377044392063, -0.07628933386883492, 0.019401509512797784, -0.044923578021979195, -0.04486563726724891, -0.025987767425660745, -0.034549515965141754, -0.012848804721221166, 0.017805856280137942], [0.057991935469683516, -0.0016623342046583626, -0.047077852886521984, 0.021445701815970886, 0.0767733611403222, 0.07893302244367666, 0.035313856527508465, 0.041889516547373336, 0.03399753285187602, 0.057588864837426985, 0.09282024831316747, 0.01846067001838198, 0.023662029092580136, -0.14999020178116731, -0.024526950134850505, 0.04159402501279577, -0.022561271948884538, -0.018430709729636452, -0.04878779048459307, 0.02949356838546561, -0.061842185649784595, -0.02334595751715976, -0.02670561352633209, 0.0045224565104120965, -0.15480605555604487, 0.008334226506131012, -0.038599740473118434, -0.01917868960751957, 0.04979078253605512, -0.007856441977012461, 0.02125629984828107, -0.09940372536500858, 0.023087328885120186, 0.06511411654461824, -0.08090781263335887, 0.0072211644254016405, 0.0452317902799903, 0.03400828870550524, 0.0376089015476899, -0.004108635050502191, -0.07561342031422492, -0.0020437983899996006, 0.08875160518278387, -0.09235956574360678, 0.03285421794614013, -0.009518841457192938, -0.05628213257940603, -0.09843692752058476, -0.048151197441999485, -0.0887277616393716, 0.03728810343040993, -0.0666684942472968, 0.03353636741635345, -0.0055164113311605735, 0.04663717602533993, 0.020454217601976864, 0.03486092807939335, -0.020235342578421474, -0.04993956730936886, 0.048264734733896045, -0.023773930866885996, 0.004335360929981153, 0.05140436076389096, -0.08906319368794602, -0.004891482745078025, 0.0018192630255597381, -0.042196431378080046, 0.0113079353083725, -0.07907836479919536, -0.014512576881971847, -0.012832917149445256, -0.04229337238172259, 0.09414934584013017, -0.07800034415062808, 0.02960733918593135, -0.011261005267271832, 0.06537343657797423, -0.03111820237823942, -0.058010919569826354, -0.038721627792878015, 0.006996613540838963, -0.02227898644791405, 0.02920859924730484, 0.020192844228931035, 0.04060621163638794, -0.040794049677543985, -0.007895665562819523, 0.0570174426441504, -0.01224479657719196, 0.006297710674448798, 0.046812387095882445, -0.0358938237106406, -0.04941073006449444, -0.007877351651342982, 0.0159243914595727, 0.09071943500524991, -0.003813298116176531, 0.06399867172519423, -0.010621091593050577, -0.0012438158759016191, 0.01897390760557703, -0.023698949980150763, 0.030343693015087957, -0.12954634673589518, -0.023247587028364807, -0.029981432192921195, 0.060277061851152114, 0.04308911532142325, -0.03551731403151147, -0.006747927206979135, -0.06174043882422259, -0.053495781723560995, -0.08032272839932728, 0.01145630859688098, -0.01772909311352086, -0.025655815707677575, -0.026002568241475295, 0.026836842939250757, -0.03281076425039103, -0.00032807242556837205, 0.049973317301066134, -0.006214295934940628, 0.05357915194625401, 0.0032215702833495725, -0.08914417816443442, 0.0015437275783562812, -0.12941168103742923, -0.06873507194838237], [-0.047140020988867284, -0.009139931358247989, -0.05172000486729978, 0.02242145367835518, -0.036020413443995626, 0.042070345698414786, 0.027802897009796837, -0.02260468623916205, -0.014596613899998754, -0.05081769257461593, -0.01656365466974703, 0.08211920803258203, 0.04118789708788818, -0.04033540126839054, 0.0162200051337324, 0.03098347761293546, 0.0721712199091846, -0.05394019049622231, -0.04240592135937841, 0.011212259033295532, -0.04353447289507372, -0.04098726686138336, -0.09192005874479463, -0.012741030256970601, 0.014325766272319448, 0.09294909218212749, 0.048319243978245746, -0.043634502685612045, -0.06207461533841216, 0.020846503335339446, 0.05380005529861702, 0.033825567820823875, 0.033428922661244545, -0.008241526392097364, 0.01753128462721596, 0.058571661784080555, 0.10602487694975991, 0.01349043724897902, 0.030989470016321647, -0.04203548401117265, 0.00444829634199956, -0.04493887944044465, 0.011771379868894604, 0.003973263460301086, 0.01877228903801493, 0.0063678043043599725, -0.05069720364387312, 0.0021888229502750587, 0.011467408944078997, -0.057327525020959225, -0.008668424379335172, -0.008662426197516384, -0.020605325852363677, -0.02633599845866942, -0.09238555490605664, -0.014171810515783428, 0.0356513352257781, 0.04867115274419721, -0.012314000302113732, -0.006199413084246903, 0.07881976836634792, -0.02539556820538357, 0.06901807834541003, -0.05260687828824681, 0.06292428180483674, 0.038382547747339214, 0.009175345663155981, 0.0019290646577566485, -0.1275898708301589, -0.07536723182505413, 0.04949498258911472, -0.028921698106563858, 0.0501739401012293, -0.07612410757617526, -0.04896130408006087, -0.13077404732330708, 0.06388057054474884, -0.040591040466408344, 0.02330603701548871, -0.04192775067978695, -0.06047714550859317, -0.12387089633350135, 0.046647698593108855, 0.015525535173625132, -0.05383875879182694, 0.0001048481143560536, -0.09398152995453429, -0.05563889682417219, -0.05308675458855985, 0.03707624696677491, -0.0518709497553738, 0.015743849418735172, -0.03692295513153229, 0.040505002027061615, 0.020874675985737327, 0.055721220624892855, 0.014788656658285671, 0.012704548173643271, 0.05933753762349605, 0.11323002079110057, 0.012500431811878075, -0.02165786462347605, -0.04340689269464069, 0.057417958795902724, 0.010284030303533935, -0.06688899645236983, -0.07338980895903871, 0.008188864122503319, 0.08147062570519231, 0.02814562352571359, 0.04152692146260915, 0.03342991098231055, 0.022551959587428606, 0.02116898667909785, -0.002658251713370426, -0.0923261003108815, -0.03489044663745844, 0.07383102483818789, -0.03376330655296705, 0.024226132391220612, -0.04678216297719853, 0.05616428076162276, 0.04040914369410802, -0.02870047810496221, -0.07129985346432537, 0.01621911531098108, -0.02707485924748951, 0.06564869285972508], [-0.08983259747273088, -0.03557528770915288, 0.07504984078144954, -0.02942089028215155, -0.04705068680073043, 0.07366664253364878, -0.0038133099344554774, -0.015877843680107813, 0.03521307352864454, -0.024377641101292587, -0.0492799552761216, -0.01574260196662852, -0.024972329855159077, 0.008109193014860499, 0.04609173930139129, -0.02924844515131467, 0.009114624869643926, 0.0012427150844506062, -0.032528116438212816, 0.016221193649909347, -0.02810898701844646, -0.05626199974544382, -0.1007118064854576, 0.0001728895126638569, -0.03316793124001672, 0.037938526246233006, -0.02194850331425166, 0.03802940777446278, -0.004784169243431384, 0.0008406306046525348, -0.0055003225714793805, 0.024430997935627623, 0.012147823388463857, 0.06537048105936033, 0.02011816645405488, 0.026970674230949534, 0.07203575494670442, 0.04003144507340525, -0.0024128734620522964, -0.07292694080095476, -0.06102036727231051, -0.038299718906703854, -0.018820502835676118, 0.015209678387295814, 0.015657941454946322, 0.07972981246061853, -0.03032105257729008, -0.00202270962957614, 0.0052548974133159055, 0.06111851398415091, -0.040768484654599216, 0.0069012357764849834, -0.02268530270893014, -0.009063034266625985, -0.03934037377724122, -0.06729070117202682, -0.07304859823359268, -0.023826248604444898, -0.02753242842007675, -0.012542824355575462, -0.02430712101176964, 0.06802870541679396, -0.04011900251583436, 0.023493012778119573, 0.004310874465469289, -0.004866753561587486, -0.017800595858394823, -0.03047643745812674, -0.03370019201995771, 0.024482886597658907, -0.03524953009649182, 0.13941341446694866, 0.038824178622549485, -0.05572393893599126, 0.01728489194994078, 0.04222554769321668, -0.07391155703910854, -0.0030436558480267267, -0.030632147168744305, 0.024564853165495455, -0.07682061821371476, -0.031268710566052405, 0.044514252655149564, 0.06610833169034205, -0.023223899244516323, -0.012640587111395426, 0.003222129933445167, 0.0010241339402151, 0.03604440816949069, -0.020270236834782816, 0.007410420243847258, 0.01798456201423167, -0.030313556237319867, 0.0106460087049709, 0.026894131342569225, -0.005493861757150413, 0.05494204064894462, 0.018501214460667416, -0.011009821972886549, -0.0407408894140503, 0.031004040803849307, 0.060726212992496795, 0.04643985105042094, -0.060650342113433314, 0.10212378541751571, -0.003686451228976716, 0.044107113908809364, 0.010560212559677486, -0.05835437893612324, -0.04823078625531274, -0.010969988465472858, 0.04581023609600206, 0.022569369154695512, 0.05483762119379479, 0.01061849991483267, -0.0668375846436389, -0.0017025308960571558, 0.006298476091678224, -0.0848000009659834, 0.04340280262394003, -0.07681174835603316, -0.07689163805910149, 0.17384571990120795, 0.05057617060227506, 0.027203407540042367, -0.019514293853579657, 0.053063240694350165, -0.03239710621728621], [-0.0627888752267472, 0.03298134798754067, -0.03782886025994346, 0.014924410247574856, 0.05177822386408478, -0.003279961814048353, 0.011075616967471917, -0.010006571516550933, -0.042326041131074583, -0.08932787599044742, 0.014575557164917227, 0.0052599008331892395, 0.12228900304965654, 0.016064456807284598, -0.0216795555959949, -0.014180469363163611, 0.048017515414095074, 0.026474299151805644, 0.039656738957270184, -0.02055250692615412, -0.0022075530246081845, -0.056622352389754, -0.06977599607925088, -0.05957842971281756, -0.033924235737946534, 0.020229196381573465, -0.0006308510091737118, 0.008370270103483525, 0.02040216817679394, -0.04937676022264588, -0.02091359867131512, -0.03640031052447092, -0.05843247572446224, 0.025409769473925183, 0.05385794584348913, -0.10291944975606387, -0.0665329833049133, -0.157733889360123, 0.07294850191200353, 0.041633068705435726, -0.08539408451238724, 0.022427098365161713, -0.05723948069890498, -0.07638059823087265, -0.04388725306597573, 0.01254628618219478, 0.018025612471195225, -0.016609966815118393, 0.0119209533144944, -0.01393915575879424, 0.07874516844244318, -0.07913517144002434, -0.027735253224529986, 0.025930443046330427, 0.020964378721966093, -0.022918827960718167, 0.016679116113194913, 0.027701045682659037, 0.02733913947666822, 0.03391965463495392, -0.03574626081752252, -0.11830857129622013, -0.06592681994401646, -0.012303647428939607, 0.03837198515395964, 0.002472614814973361, 0.04389585384142443, -0.028862653069013554, -0.06361085805680718, -0.044698528990870436, 